234 100
0.00 -0.0099676 0.012492 -0.0012233 -0.0064044 0.012752 0.0075497 0.0063144 0.0022156 0.015123 0.017735 -0.0054714 0.013401 0.011082 0.015761 0.00039404 -0.0049758 0.0019685 0.0101 5.1094e-05 -0.021039 -0.011666 0.0051761 0.0097993 -0.013405 0.0024232 -0.0023433 0.0075053 0.0014319 -0.0042817 0.020196 -0.0015634 -0.0010876 -0.01055 -0.015675 -0.015842 -0.0051766 0.0040543 -0.01298 -0.0060916 -0.012145 0.0066501 0.0038142 0.0074118 0.012211 0.00080077 -0.00079423 0.0026738 -0.0010831 -0.015555 -0.00096911 -0.0060915 0.012286 -0.014257 0.0067375 -0.0079298 -0.014354 -0.0088683 0.0019129 0.0046189 0.014692 -0.003692 0.0028684 0.014685 0.0075099 -0.0066977 0.004304 -0.0021212 0.012977 0.010263 0.0020635 -0.013041 -0.0010083 -0.0098023 0.0063287 -0.0046277 -0.0011154 0.011555 0.010689 0.0071269 -0.0027683 -0.0058276 0.0062604 0.013632 -0.010946 -0.0043971 -0.0058617 0.010213 0.0067616 -0.0080094 -0.0043026 0.020855 0.0068077 0.023108 -0.011176 -0.0073711 -0.013372 0.0071114 0.012193 -0.0021078 -0.0061528 
12.00 -0.00029803 0.017546 0.019639 -0.021554 0.022743 0.023527 -0.0053795 0.0077811 0.0078598 0.017882 -0.011589 0.01986 -0.0015645 0.022705 0.005776 -0.012151 0.0082861 0.015402 -0.010209 -0.03017 -0.029027 0.0067177 0.012769 -0.0092393 -0.016019 0.0024851 0.0045755 0.01123 -0.0072096 0.017788 0.0076955 0.0063552 -0.00033469 -0.027633 -0.019242 -0.012732 -0.0085435 -0.002793 -0.0080666 -0.016919 -0.017155 0.0018769 0.0031971 0.027485 0.022512 -0.0049657 0.024903 0.0048839 -0.022612 -0.0077581 0.0015863 0.0068017 -0.0083317 0.0082921 -0.026716 -0.018889 -0.035492 -1.6481e-05 0.0092329 0.023354 0.0099686 -0.0034525 0.025032 0.014241 -0.0017429 0.0054701 0.0042857 0.011767 2.4943e-06 -0.010707 -0.0065134 0.0029583 -0.0063095 0.0029614 -0.013293 0.0024938 0.0010201 0.0064372 0.02476 0.0049878 0.0065052 -0.0079201 0.010472 -0.0017309 0.00613 0.0082069 0.022943 0.0033005 -0.01804 0.004319 0.029993 0.0065801 0.033946 -0.0017918 -0.011626 -0.0059606 0.0022482 0.007518 0.0016159 -0.018813 
chicken 0.0068451 -0.0073024 0.000318 -0.0041239 0.0016612 -0.0061638 -0.0082708 -0.0090045 0.010595 0.010737 -0.010843 -0.00028216 -0.0015714 -0.004543 -0.0018872 0.0042772 0.0029647 -0.0021283 -0.0081416 0.00080676 0.0052188 -0.0070101 -0.0060405 0.0010255 -0.00053129 -0.00048315 0.0062857 -0.0085408 -0.0085301 0.0039881 0.0041725 0.0075161 -0.0049978 0.0012537 -0.0094817 -0.0080929 -0.0073427 0.0082916 0.0083573 0.0072908 -0.0082828 0.0041452 0.0055212 0.0021148 0.0047709 0.0041951 0.0093515 0.0082421 0.0046812 0.0065564 -0.0012853 0.00054153 0.0045799 -0.0056402 -0.011021 0.0060444 -0.00014603 -0.0085069 -0.0068319 -0.001871 0.010144 0.0079351 0.008113 0.0070041 -0.0070321 0.0038476 -0.0046657 -0.00080436 0.0044986 -0.0094489 0.0064822 0.0033931 0.0021544 -0.0089141 -0.0098151 0.0040322 0.0091026 -0.003847 0.010473 -0.0076771 0.0090918 -0.0023949 -0.0064513 -0.0057558 -0.0023767 -0.0064846 -0.00022828 0.01044 0.0055453 -0.0036966 -0.0045249 8.5243e-05 0.0093729 -0.0036382 0.0016863 -0.0018444 -0.00192 0.0057084 0.0067248 0.0075381 
fri -0.0003593 0.010643 -0.0039235 -0.0048025 0.0031933 0.010172 -0.0055516 0.00037987 0.0083107 0.0095091 -0.0058071 0.012813 -0.0063238 0.0075109 0.0071928 -0.0064153 -0.00624 -0.006063 0.0073317 -0.0014 0.0045279 0.0079624 0.0011511 -0.0015444 -0.0084248 0.0063263 0.010073 -0.00041717 -0.010044 -0.0012409 0.008699 0.0060668 -0.0015859 0.0048978 -0.0042984 0.0058457 0.0021645 -0.0057115 -0.0030507 0.0023017 0.00094226 -0.0018447 -0.0024852 -0.0027827 0.0012505 -0.0051204 0.010035 9.0366e-05 0.0012536 0.0050755 -0.0090711 -0.0045694 -0.00073003 -0.0062424 -0.0048682 -0.0086245 -0.0040351 0.002583 0.0044543 0.0051879 -0.0072946 0.0018167 0.005763 -0.0073649 -0.0084503 0.0035692 0.0023013 -0.0023992 -0.0005479 -0.0058459 0.0072942 0.0020727 -0.0017892 0.0059269 -0.0014725 0.0097515 0.005499 0.0095062 0.010116 -0.0069092 0.0014744 0.003628 0.0092722 0.0044772 0.0095352 0.00067392 0.0024224 0.0097321 -0.011002 -0.0087156 0.0050712 -0.0046859 0.0057638 0.0028802 -0.0092 -0.005318 0.00071051 0.0053588 -0.00066202 0.0005653 
10.00 -0.0061452 0.013044 0.0091932 -0.0058895 0.021317 0.019697 0.005227 -0.0047318 0.014159 0.018746 -0.0085312 0.014555 -0.0012644 0.017071 0.016983 -0.0036615 0.0063594 0.0048965 -0.0082364 -0.012951 -0.0098782 -0.0060108 0.001526 -0.021095 -0.00205 0.010388 0.018273 0.01162 0.0036009 0.024529 0.015265 -0.0053994 -0.011375 -0.017798 -0.0094785 -0.0011044 -0.0087914 0.0031242 6.7416e-05 -0.0091281 -0.0098303 -0.0076347 0.013934 0.027275 0.015108 -0.013431 0.010834 0.014961 -0.015632 -0.011115 -0.0033892 0.011193 -0.0040329 0.0025292 -0.0029428 -0.0083581 -0.023294 0.0038294 -0.0089902 0.028823 0.0090993 -0.0032188 0.010461 0.003379 0.001634 0.01162 0.0042953 0.0042925 -0.0017734 -0.0010265 -0.010847 -0.0027301 -0.016806 0.015202 -0.011859 0.0016579 -0.0030203 -0.0075195 0.018999 -0.0013518 -0.0037781 0.0017894 0.0060002 -0.00019661 -0.0001078 0.00075368 0.019838 0.015519 -0.01464 0.0059872 0.024342 0.0053634 0.032094 -0.0031922 -0.013052 0.00067513 0.0013531 -0.0040456 -0.00020935 -0.015021 
taco 0.0092192 0.0054454 0.0066696 -0.0050105 0.0059397 0.0041924 -0.0078341 -0.0025056 -0.0079119 0.010425 -0.00047481 0.0051597 -0.0049918 -0.00048329 -0.0057122 0.0036435 -0.0062819 -0.0077396 0.0072904 -0.0081233 -0.0083645 0.0016377 0.0067209 -0.0036508 0.0020606 0.0069086 0.0004382 -0.0061685 -0.0085813 -0.005219 -0.0061322 0.0069978 -0.0048277 -0.0021832 0.0031358 0.005686 -0.0073542 -0.0055645 -0.0086518 0.0082839 -0.0067091 -0.00075713 -0.0039181 0.0045562 0.0083899 -0.0033674 -0.0021617 -0.009299 -0.0062261 0.0073503 -0.0060106 -0.0080302 -0.010424 0.006698 0.0034636 0.0015164 0.00071054 -0.00048818 0.00049011 -0.00096996 -0.0079532 -0.0041831 0.0096762 -0.0033468 0.004567 0.0032067 -0.0090634 -0.0053981 -0.0049772 0.007396 -0.0029137 0.0064661 0.0089717 -0.0092859 -0.0038706 -0.001873 0.0033165 -0.0076862 -0.0050478 -0.003313 0.005653 0.0051689 0.0029128 0.0098781 0.0066952 -0.0010713 -0.0080446 0.0021746 -0.0095138 0.0094954 0.00016551 -0.0013827 -0.006624 0.002024 -0.00068857 -0.00026832 -0.0084752 -0.00031594 -0.0055165 -0.0083072 
6.00 0.0072974 -0.00061502 0.0086581 -0.0083212 -0.0038011 0.0038694 0.0042967 -0.0016427 0.00089292 0.00052181 0.0005893 0.0059737 -0.0098456 -0.0094337 -0.0051636 0.0084129 -0.0017206 -0.0022603 0.00056159 0.0049855 0.0076153 0.0093124 0.0018168 -0.0046261 0.0019716 0.0054643 -0.0055927 -0.00074247 0.00046465 0.0092547 -0.0065926 -0.0099794 -0.0061194 0.0018201 0.0038752 0.0060365 0.0045043 0.0035375 -0.00012701 0.0010276 -0.0040407 0.0066112 0.0052573 -0.0049567 0.0076298 -0.0061255 0.0095607 -0.0076382 -0.00022077 -0.006069 0.005096 0.0063989 -0.0057859 0.00023586 0.0048217 -0.0033983 -0.0012645 0.0031208 0.008119 -0.0019336 -0.00044931 0.0064319 -0.0092859 -0.0091373 -0.0060224 0.0059611 -0.0098981 0.0040348 -0.00094949 0.00998 -0.0079224 0.0021378 -0.0052959 -0.0028871 0.0013653 0.00095666 -0.00014716 -0.0079541 -0.0078288 -0.0030585 0.0064702 0.0077296 0.0041478 -0.0063855 0.0069757 -0.0052237 0.0077747 0.0053639 0.0090062 0.00027166 -0.001503 -0.0047207 -0.0031083 -0.00094504 -0.0066415 -0.0080251 -0.0020138 -0.0039749 0.0081574 -0.0093557 
3.00 -0.0067547 -0.001648 -0.0063856 -0.0087708 0.011686 0.00027141 -0.0042068 0.0022213 0.0029752 -0.0033388 0.0015573 -0.0033333 0.00057646 0.013361 0.0086313 -0.0026598 -0.0041478 0.0024075 0.001607 -0.00060134 -0.002982 -0.0043768 -0.0054438 -0.00026533 -0.0070712 -0.0043687 -0.0019409 0.0072408 -0.0057068 0.0066954 0.0018184 0.008898 0.008581 0.00065527 -0.01218 0.003043 0.0081969 -0.0099502 0.0069473 0.0001719 0.0034092 0.0043453 0.0020108 0.011474 0.0078051 0.0036676 0.011061 0.0095892 0.0030277 0.007838 -0.0063708 0.00089789 0.0035024 0.0087597 -0.00070202 -0.0060319 -0.0043552 0.00074506 0.0058372 -0.001933 0.00086231 -0.0093537 0.013275 -0.0073547 -0.0080565 -0.005854 0.0049905 0.00078401 -0.00804 -0.0058205 -0.0074147 0.0048023 -0.010791 0.0031228 0.0066889 0.0096647 -0.0047063 0.0071831 -0.00071809 -0.0028404 -0.0010846 -0.0042656 0.0090835 0.0072534 0.0012994 0.0099748 0.0037501 0.0066783 -0.0016217 -0.0041021 0.014195 -0.0029009 -0.0030173 -0.0048488 -0.013789 -0.0076984 -0.0031738 -0.0087999 0.008689 -0.0049841 
coke 0.0027437 0.0095394 0.026303 -0.019094 0.031188 0.010538 -0.00057234 0.010386 0.0095829 0.024801 -0.024371 0.034345 0.0032173 0.039437 0.021043 -0.014885 0.0061901 0.020153 0.0046186 -0.042087 -0.043556 -0.0090974 0.01477 -0.029658 -0.010914 0.009673 0.026792 0.0074509 0.0018626 0.039888 0.021196 0.017435 -0.0023732 -0.033383 -0.028384 -0.012619 0.0088159 -0.0079863 -0.010511 -0.0090757 -0.020058 -0.021663 0.021489 0.044704 0.027223 -0.01588 0.026903 0.018269 -0.029714 -0.0047264 -0.00052535 0.017232 -0.023326 0.01143 -0.027251 -0.023302 -0.036799 -0.011384 -0.0028703 0.043343 0.0078484 -0.009006 0.033524 0.018711 -0.01275 0.0053201 0.026412 0.021329 0.0020716 -0.014724 -0.0099903 -0.013223 -0.017086 0.025249 -0.0049174 0.018644 0.001608 0.0089963 0.038582 0.01233 0.0064396 -0.0030601 0.0080312 -0.014408 0.010126 0.014818 0.039477 0.023174 -0.018142 0.00040722 0.035898 0.004582 0.053393 0.0016347 -0.035426 -0.015989 0.0011349 0.018135 0.020417 -0.020895 
chees -0.0086228 0.0036059 0.0070544 0.0027659 0.004994 0.013108 0.0053178 0.0035433 0.0011773 0.0016184 -0.011566 0.0056894 0.0083836 -0.0010893 -0.0029176 -0.0084415 -0.0026933 -0.0058125 0.0013777 -0.015538 -0.014323 -0.0045499 0.0058091 -0.011165 -0.010936 0.0035423 0.012559 -0.0030939 0.0037168 0.0031262 0.0083039 -0.0046595 0.0024445 -0.014217 -0.0097768 -0.0058492 -0.0052646 0.0047728 -0.0025111 -0.0047501 -0.0004252 0.0030481 0.001083 0.014144 0.004766 -0.0015451 0.010891 0.0015878 -0.0087011 -0.0058259 0.00059741 -0.0045936 -0.0032844 -0.0010244 -0.0019483 -0.0043987 -0.0071321 0.0084188 0.0097562 0.016852 -0.0017197 -0.00032991 0.0075339 0.0072881 -0.007106 -0.0031529 0.0019239 0.016327 -0.001443 0.00093205 0.00047775 -0.0062042 -0.0043634 0.010495 -0.0040245 0.0092939 -0.0010554 0.0024132 0.014857 -0.00062599 0.010311 -0.006056 0.008468 -0.011258 -0.0063561 0.0036627 -0.00033768 0.011109 -0.0066961 -0.00046178 0.013157 0.010547 0.022404 -0.0065077 -0.017816 -0.0070066 -0.0073664 0.0036785 -0.00055658 -0.014873 
shrimp 0.0060329 0.0043331 -0.0037964 0.005564 0.012896 0.0042196 -0.0023264 -0.00026415 0.0023829 0.0016836 0.0061491 0.0066461 0.0012524 0.005244 0.00015434 -0.0044849 -6.0776e-05 -0.0045864 0.008847 0.00064163 -0.0027319 -0.0020961 0.01141 -0.013659 -0.0066281 -0.0059908 0.010011 -0.0011342 -0.0050235 0.007041 0.012404 -0.0066912 -0.0012326 -0.0078067 0.0032441 -0.010001 5.5838e-05 -0.0031503 -0.0032234 -0.011908 -0.0064602 -0.0028578 -0.0070842 0.0024991 0.010002 0.0088315 0.00095646 0.0075441 -0.010651 -0.0017931 -0.0096516 -0.0026239 0.0040058 1.707e-05 -0.00054016 -0.011761 -0.0039519 0.0091218 0.0070687 0.0070479 0.007537 0.0042146 0.0083573 0.0080862 -0.0057148 0.011389 0.0069263 0.0047907 -0.0039879 0.0077571 0.0067462 0.0084125 0.0030991 -0.0048967 -0.0043481 -0.00017363 0.0020515 0.0084882 0.0087348 -0.0047941 -0.0016928 0.0059505 -0.0017668 -0.0039349 0.010124 -0.0052355 0.0012685 0.0038048 -0.010281 -0.0026478 0.00049386 0.0048905 0.013964 -0.0087853 -0.01475 -0.011591 0.0059808 -0.0014973 -0.0032154 0.0016532 
grill 0.0081423 0.0083173 -0.0030099 0.0068085 -0.00094513 0.0082875 0.009749 0.0017834 -0.0058413 -0.0011846 -0.0089475 0.0061728 0.0078945 0.0032791 0.0084254 -0.0022059 0.00064525 -0.0059283 -0.0001395 -0.0031236 -0.0013746 0.0054603 0.002508 0.003292 -0.0082525 0.0074008 -0.0013809 0.0067747 -0.010808 0.0082783 0.0062798 0.0099327 -0.0027624 -0.01364 -0.0017095 -0.0013498 1.4177e-05 -0.004026 -0.0019286 -0.00025512 0.0018889 0.0033894 0.0086375 0.013153 0.007584 0.00024997 0.0020109 0.0032865 -0.010523 0.0058035 -0.0062068 0.0019674 0.0016196 -0.0076473 0.005547 0.00077515 -0.0023649 -0.0036554 0.006845 -0.0045997 0.0075421 0.0011011 0.010989 0.009426 0.0066067 -0.0026054 -0.001262 0.0074526 -0.0066921 0.0006017 -0.0067363 -0.00044736 0.0067072 0.0070304 -0.0079116 0.004378 -0.0011878 -0.0019922 0.011499 -0.0083443 0.0075726 0.003958 -0.0047834 0.0049262 0.0062431 0.006582 0.013367 0.0042382 -0.00088726 -0.0094604 0.0020095 0.01001 0.00549 0.0093992 0.0014602 -0.0023918 -0.0086519 -0.0012711 -0.0074591 -0.0080807 
beef 0.0015206 -0.0053277 -0.005496 -0.0071964 0.011576 0.0028368 -0.0091361 -0.0028021 0.0056928 -0.00050808 -0.0036988 0.012854 0.010259 0.01095 0.0049219 -0.0021691 -0.00010714 -0.001771 0.0070102 -0.0091574 0.004931 -0.0010888 0.0061465 -0.00066101 -0.0042571 -0.0060485 0.0088343 0.010157 0.0070913 -0.00055009 0.0032376 0.0038566 0.0061047 -0.0012953 -0.011364 0.0019201 0.0086458 -0.0080154 -0.00811 -0.003672 0.0048525 -0.0064809 0.010703 -0.0037098 0.0094781 -0.0091344 0.0022624 0.0098352 -0.00075534 0.0001855 0.005179 -0.0082651 -0.0028055 -0.0049749 -0.0060224 -0.0090225 -0.011547 -0.0035374 -0.0074641 5.8701e-05 0.0044535 0.0053326 0.0080018 5.7185e-05 -0.0094079 0.0082159 -0.0071306 0.0026067 0.0053943 -0.0063551 0.003029 0.0057527 0.0036956 -0.0029068 -0.0029548 -0.0069609 0.0042386 0.009449 0.0038092 0.007842 0.0021776 0.001569 0.0042028 -0.0050575 0.0054872 0.0018841 0.004417 -0.00034134 -0.006816 0.00063756 0.0055565 -0.0083454 0.0034192 -0.0091784 -0.0065763 -0.0080415 0.0053276 -0.0082467 0.0010539 -0.009176 
18.00 0.0012841 0.0053448 0.015511 -0.001596 0.0083719 0.017411 0.0046702 -0.0010934 0.017773 0.018345 -0.0066792 0.025219 -0.0045893 0.021862 0.0068886 0.0014896 0.0083263 0.016361 -0.011996 -0.026862 -0.022488 -0.0079797 0.0019513 -0.012501 -0.00014349 0.01086 0.018506 0.014574 0.0033556 0.021129 0.016881 0.0045924 -0.0062361 -0.022567 -0.0044294 -0.0013484 -0.0078973 -0.014621 -0.0024185 -0.0135 0.0021868 -0.0052842 0.006333 0.025678 0.017334 -0.010186 0.0042806 0.0082635 -0.011416 -0.0123 0.0019738 0.014254 -0.017914 0.0058479 -0.023882 -0.020363 -0.02734 0.0029629 -0.0096663 0.026129 -0.0023347 -0.01092 0.018076 0.01476 -0.0077629 0.0013248 0.0048039 0.015355 0.009084 -0.0087489 -0.016513 0.0036279 -0.0061615 0.0078436 -0.013014 -0.001994 0.012324 -0.0074749 0.0096624 -0.00097987 0.010072 0.0036266 -0.002158 0.0026418 -0.0018985 0.011438 0.026828 0.0036236 -0.013213 0.0043179 0.01419 0.0092518 0.030463 -0.0096731 -0.019831 -0.0060534 4.2722e-05 0.0027989 0.016207 -0.012772 
dinner 0.0019075 -0.0084534 0.0024343 0.0076466 0.0064588 -0.0094753 0.0025443 -0.0036231 0.0019149 0.0036358 -0.0044094 0.0090942 -0.0096684 -0.0034934 -0.004745 -0.002865 -0.00018202 0.0082737 -0.0051385 0.0095256 -0.0068928 0.0060674 0.0010474 -0.0066008 0.0020082 0.0053428 0.0077205 -0.0094554 0.005892 0.005358 -0.0042102 0.0078206 -0.0080528 -0.0071589 0.0089237 -0.0050109 0.00031837 0.0051208 -0.00585 -0.0091415 -0.0069051 0.0060913 -0.0047086 1.4428e-05 -0.0016717 -0.0012725 0.0097371 -0.0056034 0.0084299 0.0028196 -0.0075903 0.0069826 -0.0033549 -0.0017166 -0.0061433 -0.006722 -3.7145e-05 -0.002826 0.0024953 0.0047796 -0.0066664 0.0023449 -0.0092828 0.0067442 0.0086948 -0.0065532 -0.00016515 0.00087587 -0.0018213 0.0030245 -0.0083872 -0.0028762 0.0040556 -0.0093009 -0.0091195 0.0093278 0.0083764 0.0078635 -0.0036325 0.0085742 0.0054111 -0.008055 -0.0012278 0.0078848 -0.0024188 -0.0046663 0.0059198 0.0021781 -0.003303 -0.0088934 0.0085571 0.0033175 -0.0048663 0.0039584 -0.0082973 -0.0093386 -0.0028575 0.00098582 0.001553 -0.0011815 
burger 0.0027842 0.0074587 -0.0029306 -0.0097442 0.0050613 0.0077113 -0.0064829 -0.0066525 -0.0026894 0.0083832 0.0047091 -0.0060444 0.0020577 0.0048974 0.0073265 0.0091856 -0.0021322 0.0011438 -0.0076019 -0.010096 0.0062854 -0.0093095 -0.0086647 0.0079408 -0.00055305 0.0042567 -0.0039734 0.010486 -0.010168 -0.0029406 0.0055095 0.0085317 0.008989 -0.0084799 -0.0084557 -0.0069658 -0.0094138 -0.0060424 0.00027903 0.008466 -0.0010658 0.0046238 0.010487 0.0090695 -0.0027109 -0.0088669 0.0047331 0.010781 -0.00026604 0.0065899 -0.0037585 0.01047 -0.00050874 -0.0032544 0.0040533 0.005244 -0.0053162 -0.0068821 0.0073807 -0.00073172 0.0057798 -0.0070158 -0.0047326 0.0049897 0.0050231 -0.0052381 0.010431 0.003322 -0.0057454 0.0058886 0.0061931 0.0079564 -0.011037 -0.005333 0.0073032 -0.0027144 -0.0025239 -0.0083945 0.0044196 0.0025664 0.0010067 0.0096972 0.0042208 0.0026714 -0.0020365 -0.0068274 0.0073381 -0.0080102 0.0001028 -0.010344 -0.0070017 0.0058737 0.0081875 -0.0036533 -0.0036036 0.0048254 -0.0044338 -0.0023563 0.0069606 0.0015803 
8.00 0.0030132 0.0064493 0.001159 -0.0030472 0.009905 0.012475 -0.0059751 -0.0015055 0.013907 0.01314 0.0017567 0.017142 -0.0031254 0.012858 0.0082562 -0.0082968 0.0037285 0.0071206 -0.0074901 -0.014536 -0.011206 0.0038364 0.012726 -0.00037434 -0.0016736 0.0064215 0.011568 0.0035647 -0.0045364 0.01507 0.015278 0.00061795 -0.00099559 -0.016582 -0.015257 -0.010933 -0.0010012 -0.0069705 0.0059413 -0.0059419 -0.010468 0.0056509 0.0092845 0.017291 0.01023 0.0061681 0.0059742 0.0089817 -0.00075128 -0.0056734 0.0071262 0.0059563 -0.0031756 -0.0056352 -0.0075476 -0.010118 -0.0010195 -0.0031828 -0.0016611 0.012071 0.0074739 -0.01285 0.017047 0.0049721 -0.0011904 0.0082488 0.013462 0.0090774 0.0075506 -0.0066575 -0.0080506 0.00313 0.0037305 0.010732 0.0022636 0.0025599 0.0044911 -0.0015314 0.015877 0.0060054 -0.0036522 0.0010727 0.004316 0.0064807 0.0022114 0.0082897 0.00097492 -0.0030766 0.0010781 0.0047371 0.018942 0.0094631 0.021723 0.0080139 -0.0051112 -0.01333 -4.5053e-05 0.0078326 0.0098734 -0.0076817 
reg 0.0056437 0.0001866 0.0084127 -0.0055027 0.0095186 0.00069169 -0.0075346 0.010123 0.01302 0.0039012 -0.0098591 0.020128 -0.0038147 0.01305 -0.0020122 0.0058693 0.011168 0.0062974 -0.0032961 -0.02856 -0.011437 -0.0029974 -0.0044131 -0.014774 -0.0097556 0.012804 0.011315 7.8822e-06 -0.0051686 0.020873 0.0046143 0.00066351 -0.0018512 -0.017407 -0.0090202 -0.010214 0.0060686 -0.003013 -0.0026264 -0.014789 0.001908 -0.0029946 0.0030802 0.019748 0.013187 -0.011537 0.016402 0.00048152 -0.017482 -0.011992 -0.0062135 0.0081661 -0.011573 -0.0024273 -0.0026993 -0.021182 -0.01221 0.0010052 -0.0022882 0.015973 -0.0022254 -0.011277 0.02084 0.013546 -0.0073275 0.013586 0.013124 0.020891 0.00098884 0.0037692 -0.012741 0.0048162 -0.0062582 0.0074897 -0.0055897 -0.0048202 0.0013324 0.009848 0.019436 0.0083245 0.013736 -0.0037136 0.0025304 -0.012428 0.0046585 0.0029501 0.017459 0.0064132 -0.0022869 -0.0097961 0.026284 -0.003687 0.027946 0.0012475 -0.013407 -0.0092028 -0.0015167 0.0010233 0.00057761 -0.0021384 
coffe 0.0062581 0.0085013 -0.0062831 -0.0084715 0.0026472 -0.0069206 -0.0037461 0.008406 -0.00010191 0.0049729 -0.0064829 -0.00086674 0.004429 0.0096398 0.0073255 0.0061011 -0.0049368 -0.0026783 0.0027961 -0.0057187 0.00089468 0.0013929 0.00020144 0.0019081 -0.0035484 -0.0022922 0.0082628 -0.0088647 0.0012719 -0.0071618 -0.0029108 -0.0077062 0.0057962 -0.0062852 -0.0043179 -0.0058024 0.0021614 -0.0086458 -0.0087613 0.0038515 0.0050209 -0.00098455 0.0014261 -0.0019662 0.0024226 -0.0097291 -0.0065736 0.0093316 -0.0027324 -0.0053339 -0.0085051 0.0097324 -0.009141 0.0059637 -0.0088374 -0.0027763 -0.0069447 0.0088961 0.0081766 0.010609 0.0092393 -0.00092653 0.009486 0.008966 -0.0011877 0.0033675 0.0071259 -0.0026382 -0.0072933 0.0025093 -0.0050978 -0.0011658 0.0029059 -0.00037128 -0.00052797 0.002519 0.0070602 0.00073127 0.0021258 -0.0023104 0.0055106 -0.0092623 0.0054491 0.00028554 0.0085102 0.0099346 0.001744 0.0071738 0.0046385 -0.00021788 0.0029004 0.0080669 0.010952 -0.0091786 -0.0086291 -0.0030975 -0.0057077 0.0036208 -0.0024498 0.0034089 
2.99 0.0038185 -0.0029006 0.0091004 0.0049924 0.010648 0.010684 0.00090943 8.1685e-05 0.0010997 0.0068323 -0.009002 -0.005667 0.0031779 0.0063395 0.0034142 8.72e-05 -0.0039457 -0.0051205 -0.0090925 -0.014085 0.002209 0.0030727 0.0096564 0.0026196 -0.0066719 -0.0062971 -0.0019325 0.0080562 0.0013494 0.0060156 0.0053677 0.00038721 0.005046 0.0039001 -0.0056746 -0.0020359 -0.0084697 0.0063561 -0.0038221 -0.010568 -0.0029546 0.0034884 -0.0064046 0.011948 0.0070448 0.0081992 0.002471 -0.0072748 -0.0017867 -0.010014 -0.0044805 0.0058911 0.00086496 0.00070294 -0.0074976 0.0020991 0.0033263 -0.0029522 0.0054351 -0.0043718 -0.0074563 -6.0104e-05 -0.0061016 0.0023576 0.0035054 -0.0020467 0.006286 0.010244 0.0033513 0.0083477 -0.0088725 -0.0025305 -0.0062573 -0.0043376 -0.0066603 -0.0010487 0.0075505 0.0063181 0.0085619 -0.0011521 0.0096039 0.0020638 0.0016136 4.7034e-05 -0.0086232 0.006884 -0.00454 0.00081242 0.0039801 -0.009722 0.0095278 -0.001015 0.010978 -0.0082707 -0.0071886 -0.00088337 -0.005768 0.0085078 0.0038359 0.0048986 
side 0.00024723 0.00047488 0.01565 -0.00015566 0.0068544 0.015079 0.0063161 0.0089545 0.020214 0.014944 -0.014463 0.024189 0.0088046 0.023929 0.013057 0.0010524 0.0060657 0.003501 0.0046751 -0.029108 -0.03106 -0.0061078 0.013651 -0.013838 -0.0020079 0.0029544 0.008607 0.012579 -0.0082302 0.014483 0.010155 0.0011077 -0.009036 -0.015573 -0.021739 -0.014154 0.0099636 -0.00092275 -9.0758e-05 -0.0018811 -0.014942 -0.0049827 0.0082485 0.0308 0.018649 0.00090686 0.0095849 0.008484 -0.012764 -0.00041591 0.006817 0.0010845 -0.018897 0.0023655 -0.020946 -0.02279 -0.014257 -0.0039526 -0.0039975 0.030158 -0.0022613 -0.0045078 0.012495 0.011015 -0.014792 0.004304 0.013295 0.018256 0.0016585 -0.013214 -0.017128 0.0055384 -0.0048195 0.019328 -0.014521 0.014055 0.01124 0.0012798 0.017628 -0.0060326 0.011358 0.0074484 0.0020494 -0.011922 0.0049725 0.0058916 0.017976 0.020941 -0.012795 -0.010237 0.028084 0.014105 0.032753 -0.00074977 -0.027395 -0.013886 -0.00033914 -0.0046118 0.0011952 -0.014936 
2.00 0.0025951 0.010162 -0.0012038 -0.010659 0.0056402 0.0088273 -0.0096643 0.0034966 -0.0047783 -0.0015423 -0.0037462 0.013798 -0.001118 0.012381 -0.0017542 0.0039744 0.0059919 0.0036258 0.0092034 -0.01153 0.0037655 -0.0094129 0.011351 -0.0036937 -0.0017972 -0.0028909 0.009043 -0.0011999 -0.008398 0.0064966 0.012065 0.0094902 8.4205e-05 0.0044414 -0.0022384 -0.01136 -0.0051655 -0.00405 -0.010277 0.0016992 0.003648 0.0075616 -0.00086819 0.0044307 0.0060775 -0.0095907 0.008165 0.004906 -0.0033687 -0.010691 -0.0015695 0.0082057 0.001484 -0.0049744 -0.0090109 -0.0077751 -0.0078948 -0.0075027 -0.0004895 0.0045865 -0.0037781 -0.0016366 0.0081697 0.0024494 -0.010214 -0.007885 0.0078891 0.0032569 0.0070499 0.0022114 -0.01077 -0.0012599 -0.0024443 0.0024871 -0.0067893 0.00582 -0.0085037 0.0032126 0.0047201 0.002777 0.0014717 -0.0052916 0.0037962 -0.0084559 0.0037934 0.0096954 0.0052387 0.0025951 -0.0066557 -0.0075882 0.01277 -0.0043136 -0.0004271 -0.0059327 0.0050261 -0.011767 0.0017467 0.002232 0.0098298 -0.008393 
beach -0.0043093 0.011621 0.013258 0.0018282 -0.0010523 0.013161 0.00081533 0.0054523 0.013837 0.013418 -0.0052537 0.0081046 0.0023142 0.010777 -0.0018906 0.0057919 0.0082681 0.01173 -0.0081924 -0.0065212 -0.012252 0.007915 -0.0056287 -0.00966 -0.0023272 0.0079529 0.011976 0.01344 -0.010571 0.0071223 0.012303 0.0015389 0.0072508 -0.0076095 -0.0019769 0.002621 0.0070152 0.0053517 -0.0097045 -0.0010615 -0.012373 -0.0029438 -0.0061474 0.013649 0.012394 -0.0025399 0.016914 -0.00041471 -0.014836 -0.013233 0.01018 0.013113 -0.00078219 0.0097365 -0.010326 -0.018987 -0.016036 0.0079258 0.0082826 0.013881 0.00043101 -0.0029745 0.0026345 0.0081238 0.0011638 -0.0051735 0.014757 0.0090809 0.0091401 -0.00080004 -0.00030184 -0.0044319 -0.013653 -0.00328 -0.0032657 -0.00096761 0.0018328 -0.0078158 0.0063776 -0.0008877 -0.00072354 0.003358 0.00065387 -0.00026134 -0.0092252 0.0017716 0.020503 0.003221 -0.0062611 -0.0079226 0.0075915 -0.0059088 0.012312 -0.0095582 -0.0042639 -0.00018488 0.0017918 0.0035288 0.0090109 -0.015013 
tender -0.0052295 0.0049546 -0.0022523 0.0084697 -0.002088 0.0090023 -0.0056958 -0.0054611 0.0039626 -0.0074659 -0.0012154 -0.0062841 0.003166 0.0096948 -0.0081329 0.0079922 0.0074761 -0.0081586 -0.007959 0.0041917 -0.0017882 0.0026798 -0.006328 0.0006884 -0.0090939 -0.005043 -0.0095605 0.0033835 0.0022163 -0.0043044 0.0055358 -0.0097041 0.0073058 0.0062004 0.0075983 -0.0091649 0.0077882 0.0071136 -0.0053567 0.0024854 -0.0082242 -0.0082134 -0.0024136 0.0049038 0.002736 0.0081742 0.006127 0.0030251 0.0078449 -0.009969 0.0091711 0.0049822 -0.0032601 -0.0039527 -0.0074044 -0.005287 -0.0041223 0.004339 -0.0018821 0.0072016 0.0078309 0.0088803 -0.0040539 -0.0042071 -0.0043066 -0.0027307 -0.0070914 -0.0021107 -0.0071277 -0.0098571 0.0042965 0.0047369 -0.0024032 0.0014207 0.00069287 -0.001104 -0.0015669 -0.0094735 -0.0043331 0.0061075 -6.0699e-05 -0.0054942 -0.0053862 0.0077269 0.0065003 0.0091188 0.00086363 0.0072279 -0.0056656 0.0089353 -0.0028336 -0.0040714 0.0086307 -0.0027042 0.0032507 0.0061651 0.0099033 0.0055441 0.0057505 0.0075216 
new 0.0043726 0.0079781 -0.0040097 -0.0034402 0.012665 0.0083653 -0.0047014 -0.0024768 0.0083398 0.016204 -0.012803 0.01585 -4.6753e-05 0.010929 0.007502 0.0047167 -0.0015341 0.009846 0.0031818 -0.012788 -0.0087891 -0.00079276 0.0043997 -0.011651 0.0035179 0.002575 0.012605 0.0022246 -0.0092226 0.021817 0.0045698 0.0025828 0.0013568 -0.0027206 -0.010906 -0.00021044 0.0019472 -0.0038301 -0.0067866 -0.0037291 -0.0061358 -0.010395 0.0073263 0.006354 0.0029275 -0.013147 0.0018486 0.0013697 -0.016385 -0.0046499 0.0083021 -0.00031215 0.00035871 -0.0071709 -0.0038419 -0.0025264 -0.0025108 -0.004029 0.0089227 0.010048 0.0083929 -0.0064673 0.0067799 0.011112 -0.0074025 0.0071909 0.012572 0.0056559 0.011688 0.0064554 -0.010737 0.0041349 -0.0086353 0.0096309 -0.012345 -0.0063952 -0.0028813 0.0079061 0.0095366 0.0047069 -0.00094536 -0.0029777 -0.0039482 -0.0082715 -0.0012861 0.009633 0.015528 0.010856 -0.011474 0.0028469 0.02245 0.0036813 0.015514 -0.0044882 -0.0039305 -0.01417 -0.0025695 -0.0061814 0.0049923 1.366e-05 
hous 0.0033899 3.6662e-06 0.0090562 0.002416 0.0011484 -0.001482 -0.0079391 -1.9346e-05 0.014185 0.0032556 -0.010565 0.021403 -0.0058299 0.0012828 -0.003028 0.005807 0.0040263 -0.0030473 -0.009581 -0.0068226 -0.010271 -5.0163e-05 0.0039099 -0.011178 -0.00085164 0.0062965 0.0093488 -0.004945 -0.0093892 0.011903 0.014307 -0.0011312 -0.010337 -0.016225 -0.016971 -0.0098091 -0.0087494 -0.013803 -0.00053031 -0.0049896 -0.011105 0.00075847 0.00723 0.011026 -0.0029021 0.0045527 0.0036388 -0.0039151 -0.01387 -0.0114 -0.0032783 0.00054142 0.0027866 0.0097937 -0.0056312 -0.0019603 -0.01846 -0.00031564 0.0011865 0.014262 0.010632 -0.012526 0.0094848 0.0047657 -0.013773 -0.0053445 0.013825 0.011985 0.0045399 -0.0079817 -0.012139 0.0023551 -0.0060392 0.012655 -0.0016617 0.0058768 0.0031568 0.006466 0.0070916 0.0010833 -0.00174 -0.0074634 0.002992 -0.0016035 -0.0050108 0.0079938 0.0069828 0.0051031 -0.013328 -0.0093885 0.0035496 -0.00394 0.0065836 0.0027695 -0.0094161 -0.014117 -0.0046484 0.0026513 -0.0032116 -0.0061456 
5.00 -0.00071245 0.0061829 0.0099177 0.0013303 0.014605 0.013672 -0.00078391 -0.0019518 0.007956 0.015643 -0.0034021 0.018372 -0.0007119 0.010149 0.0087051 -0.011372 -0.0028617 0.015806 0.00063392 -0.022991 -0.01884 -0.0061894 -0.00065883 -0.0016171 -0.012494 0.00029456 0.0024837 -0.0022878 -0.0048757 0.0092815 -0.00067919 0.0046415 0.0038045 -0.007923 -0.014962 -0.0060538 0.00030197 -0.006889 -0.0054468 -0.0023304 -0.0070135 0.0014459 0.0015855 0.022583 -0.00026844 -0.005471 0.01138 0.0107 -0.0023144 0.0019049 -0.007873 0.007901 -0.0064487 0.0087008 -0.0050967 -0.021745 -0.016557 -0.0091761 0.0070387 0.016891 0.012105 -0.0092305 0.021701 0.0029271 0.0030162 0.0031786 0.0069887 0.019422 -0.0020098 -0.0029404 -0.01521 -0.011196 -0.00034406 0.006707 -0.0052832 0.0076231 0.012297 -0.0073646 0.022737 0.0039085 0.0022407 0.0013221 0.013847 -0.00065805 0.0045923 0.0028797 0.023442 0.014959 -0.013244 -0.0036717 0.021052 -0.0049368 0.029559 0.0066595 -0.014628 -0.01474 0.002194 0.0054181 0.0015181 -0.0005475 
tbl -0.0067879 -0.0042776 0.0030318 -0.0029524 0.015814 0.013939 0.0077231 0.0026059 0.0064874 0.017493 -0.0068918 0.015309 -0.0069094 0.0059007 -0.0048157 -0.0107 0.002306 -0.0049852 -0.00052523 -0.016738 -0.012665 0.0021257 0.0075378 -0.0066258 0.0016942 0.0092225 0.0028877 0.0064127 -0.004797 0.01893 0.0040896 0.010291 -0.011094 -0.013735 0.0026281 -0.0082655 -0.0072231 -0.0092626 0.0035208 -0.012598 -0.01164 -0.0040331 0.00087609 0.017479 0.0065498 -0.0050904 0.00094371 -0.0024802 -1.3211e-05 0.0010237 0.0097605 -0.0029452 -0.0027367 0.0063225 -0.015671 -0.015917 -0.018444 0.0010145 -0.0065093 0.020205 0.013218 0.0060798 0.0043861 -0.006229 -0.0043142 0.0066006 0.0035735 0.00052676 -0.0075834 0.0058839 0.0065327 -0.0074461 -0.014169 0.002755 -0.0074175 0.012244 0.010251 -0.0055752 -0.0010307 0.0077743 0.01135 0.008726 0.011386 0.0076807 0.0044127 0.0019365 0.0010738 0.0033924 0.0043097 -0.008547 0.005487 0.00049932 0.015737 0.0076967 -0.0021464 -0.0012553 -0.0088406 0.0056587 0.0064452 -0.01139 
4.00 -0.0035368 0.014287 0.013227 0.00067694 0.0035306 4.1295e-05 -0.0015524 0.0091377 0.00081486 0.010824 -0.0065339 0.014418 0.0028457 0.0044567 0.010182 0.0019135 0.0089432 0.002399 -0.0015506 -0.011698 -0.0083388 0.0025033 -0.0011164 -0.0087064 -0.0017509 -0.0017531 0.010642 0.0077134 -0.0023253 0.014456 0.0058382 0.0034554 0.006898 -0.0049288 -0.002057 -0.011307 -0.002313 -0.0079415 -0.0023478 -0.015207 0.004529 0.0034553 0.0020603 0.007445 0.0013961 -0.0024505 0.014103 0.0029017 -0.0036796 -0.0023267 0.0087553 -0.0036066 0.0044196 0.0075305 -0.011663 -0.0021339 -0.016351 -0.008645 0.0026382 0.012086 0.0084981 -0.0005977 -0.0013103 0.011885 0.0049746 -0.0034463 -0.00029782 0.012692 -0.003265 -0.0091107 0.00098791 0.0090209 -0.013746 0.0091199 -0.0085085 0.0016917 0.011417 0.0085451 0.0017302 0.0062961 -0.0050624 -0.0065124 0.0022326 0.002238 0.0039054 0.0015813 0.01298 0.0062863 -0.014472 0.0088501 0.010587 0.0020203 0.021298 0.0030579 -0.016678 0.0032026 -0.0084874 -0.0072978 0.01045 -0.014286 
13.00 -0.0050118 0.026192 0.011093 -0.024949 0.022195 0.029499 0.0027364 0.01034 0.017289 0.033751 -0.013228 0.048189 -0.0019777 0.034929 0.024725 -0.014914 0.0034338 0.01431 -0.00071084 -0.045856 -0.046204 -0.0039443 0.018134 -0.020113 -0.010813 0.011057 0.030116 0.018242 -0.0077022 0.047092 0.013119 0.020516 -0.0068804 -0.039318 -0.013387 -0.014005 -0.0039249 -0.011704 -0.0088586 -0.024279 -0.0079104 -0.0079585 0.015449 0.046928 0.023713 -0.016131 0.0214 0.018248 -0.033124 -0.01934 0.0081864 0.017574 -0.022108 0.0036724 -0.034952 -0.03428 -0.048788 -0.00022047 -0.0034363 0.04862 0.018608 -0.018263 0.03504 0.009607 -0.020798 0.020081 0.02368 0.019104 0.0076753 -0.0055049 -0.0094715 -0.013363 -0.025053 0.01878 -0.012399 0.00518 0.0032372 0.01411 0.022427 -0.0081157 0.0048989 0.0027112 0.013028 -0.0060293 0.0094158 0.0071475 0.047754 0.026752 -0.015954 -0.013744 0.050233 0.0066085 0.047702 0.0017349 -0.037646 -0.0048032 0.0099072 -0.00012971 0.019478 -0.014329 
roll -0.0036619 -0.0098252 0.0069586 -0.0050224 -0.005962 -0.0090582 -0.0059765 -0.0035697 -0.008429 0.0048752 0.0021721 -0.0087841 0.0084731 0.0026889 0.0059398 -0.0093266 -0.0056861 0.0056086 -0.0085198 0.008327 -7.4101e-05 0.0074915 -0.0047261 -0.0070394 0.002801 0.0013431 -0.0032086 0.0027201 0.0069934 -0.00012599 -0.0091459 0.0067074 0.0036987 0.0074953 0.009763 0.00073125 0.002335 0.0049229 0.0077065 0.0082162 -0.0037449 0.0015971 -0.0076738 -0.0038159 -0.00088578 -0.0049299 0.0026967 0.0041152 0.0091661 -0.0039713 0.0077291 -0.0054468 0.00024434 -0.0041174 -0.0049578 0.004424 -0.0031093 0.0024249 0.007396 0.0056912 0.0078234 0.0018295 -0.0026338 -0.0043751 0.0060546 0.005801 0.0080493 0.00027222 -0.0070497 -0.005042 0.0038369 -0.0016214 0.0054274 0.00045947 0.00071414 0.00016722 0.0025917 -0.0075742 0.0096002 -0.0089939 -0.0070084 -0.0068919 0.0036913 -0.0038214 0.0080821 -0.0024766 -0.0085508 0.002013 -0.0062573 -0.0062997 -0.0044322 -0.0064503 0.0062795 -0.0081756 -0.0043605 0.0093994 -0.0039242 -0.0081958 -0.0045048 -0.0098463 
1.00 -0.0078057 -0.00075846 0.0048265 -0.010763 0.0033553 0.003884 0.0054041 0.0087829 0.017551 0.0108 -0.011958 0.019583 -0.002391 0.0092666 0.0031887 -0.0099662 -0.0057383 0.00706 -0.0089897 -0.026123 -0.025621 -0.010418 -0.0015356 -0.0069326 -0.0052526 0.0014223 0.015729 0.0062952 -0.0057773 0.027495 0.018006 -0.00021367 -0.0041887 -0.02226 -0.014951 -0.0051353 -0.0059631 -0.012332 -0.001877 -0.0010042 -0.0049764 -0.010525 0.01586 0.012502 0.014295 -0.0074165 0.015794 -0.0026669 -0.01774 -0.015875 0.010987 0.0073425 -0.0087243 -0.0065579 -0.014594 -0.017443 -0.019461 0.0029503 0.0064806 0.019047 -0.0030687 -0.0064636 0.0095333 0.0079531 -0.014373 0.009709 0.0039441 0.020388 -0.005145 -0.012538 -0.0079457 0.0077624 -0.0010171 0.0081015 -0.0045452 -0.0016808 0.0029815 0.0008261 0.016621 -0.0069055 0.012573 0.0030076 -0.0012436 0.00472 0.0050177 0.010214 0.012914 0.015656 -0.019963 0.005102 0.024755 -0.0021541 0.022343 -0.01277 -0.019656 0.001382 -0.0025471 0.013682 -0.0025813 0.00079273 
14.00 0.0059235 -3.434e-05 -0.0038016 0.0029794 0.012802 0.0088075 0.0034974 -0.0037709 -0.0038064 3.429e-05 -0.0023757 0.014136 -0.0074604 0.0031017 -0.0044472 0.0051498 -0.0070413 0.0067783 0.00402 -0.0002556 -0.0042019 0.0068177 -0.0011057 -0.014079 -0.0088791 0.006164 0.01369 0.0091384 0.0077938 0.0095317 0.013029 0.0081897 -4.3554e-05 -0.011032 -0.0041776 0.00067227 0.0035214 -0.0019629 0.00080402 -0.010964 -0.00039034 0.0014303 0.0018355 0.014129 -0.0037366 -0.010482 0.0021219 -0.0023116 -0.0096466 -0.01246 0.0017045 0.0039438 -0.0096698 -0.0025527 0.00090468 -0.017178 -0.011526 0.0098436 -0.0014018 0.01111 0.010289 -0.0069395 0.0095508 0.00036212 0.0028394 0.0059803 -0.0024923 0.0063646 0.0092325 -0.004405 0.0054425 0.0022207 0.0047541 0.0081389 -0.013056 -0.0074768 0.010611 0.0050741 0.012867 0.0055215 -0.0010143 2.7688e-05 0.0082838 0.0057876 -0.0052701 0.0062503 0.01003 0.0028743 0.0027721 1.0821e-05 -0.00069143 -0.0079459 0.0031614 -0.01017 -0.0035239 -0.0071821 0.00090725 -0.0039532 0.0067953 -0.0058639 
20.00 -0.0029722 0.01073 0.019695 -0.012802 0.025775 0.019071 0.007343 -9.5169e-05 0.0082204 0.02798 -0.0065173 0.032031 0.0025028 0.027103 0.024351 -0.0067395 -0.0032281 0.0064068 -0.010203 -0.041307 -0.023473 -0.0006684 0.0071243 -0.026628 -0.0038647 0.01624 0.011835 0.0068456 -0.00036849 0.034073 0.024186 0.0109 -0.01365 -0.021686 -0.023965 -0.02181 -0.006718 1.1073e-05 -0.0070912 -0.026572 -0.015022 -0.016813 0.012283 0.035358 0.01328 -0.0045002 0.024454 0.018286 -0.023156 -0.013096 0.013716 0.0071648 -0.018024 0.00291 -0.029653 -0.020426 -0.036782 -0.0061599 0.0074653 0.042165 0.0013626 -0.012418 0.023406 0.010734 -0.013297 0.0096669 0.020448 0.023816 -0.0034672 -0.0061157 -0.018187 -0.0073271 -0.0066919 0.016811 -0.019525 0.002857 0.0089323 -0.0049672 0.034866 -0.0084988 0.008127 -0.0075839 0.0064608 -0.015751 -0.0051294 -0.0011269 0.026775 0.019741 -0.0089346 -0.0065864 0.025329 0.0031137 0.046268 -0.0016569 -0.031121 -0.016326 -0.0021685 0.016453 0.0041839 -0.018771 
0.50 0.0069209 -0.00057983 0.0054431 -0.010233 0.017554 0.0047162 0.0002351 0.011233 0.0061049 0.0070554 0.0035066 0.022028 0.0097731 0.0061831 0.0077632 0.0050535 0.010632 0.00017596 0.0048555 -0.020175 -0.010703 -0.0028244 0.0061314 -0.0066661 -0.0117 0.0061385 0.006428 0.0050856 0.0061987 0.017074 0.0022865 0.0058286 -0.012412 -0.003471 -0.0065679 -0.0049076 0.0035857 -0.010071 -0.010866 0.0027876 -0.00027307 -0.0025914 0.012271 0.005211 0.0010928 0.0028188 0.015079 0.0056427 -0.015925 0.00067379 0.0018021 0.0015659 -0.011602 0.0032769 -0.017638 -0.015691 -0.009093 0.0076174 0.0026244 0.021223 0.0027446 0.00086482 0.007081 0.0019936 0.0010135 0.0066219 -6.4706e-05 0.017814 0.010592 -0.0039929 -0.012249 -0.011249 -0.002419 0.0026556 -0.0067426 -0.0061995 -0.0051223 0.011054 0.017781 0.0043888 0.0035615 -0.008129 -0.00086327 -0.005253 0.0066909 0.0083205 0.012433 0.011111 -0.010667 -0.0015393 0.0039658 -0.001401 0.01814 -0.0027564 -0.0085278 -0.0097592 -0.0042217 0.0051025 -0.0025776 -0.0069938 
parti 0.0060578 -0.0021202 0.0081919 -0.0054575 0.0077137 0.013579 -0.0012604 0.0057523 0.0024888 0.0096964 -0.0088704 0.0085804 0.0046776 0.014134 0.0083779 0.0072112 0.0064208 -0.0045844 -0.004771 -0.0022254 -0.0087953 -0.010535 -0.0019034 -0.00012605 0.0041386 -0.0019772 -0.0019082 0.00069367 0.0028098 0.0060322 0.0091147 -0.0056248 0.0012521 0.0012559 -0.010064 -0.0095298 0.0078109 -0.00041288 -0.0076594 -0.012693 -0.010656 0.0060267 -0.0019915 0.0024365 0.01091 -0.010216 -0.0032734 -0.0020414 0.002657 0.0039646 0.0062777 0.011674 -0.001521 -0.0021636 -0.014013 -0.0013897 -0.014939 0.004905 -0.0069712 0.0074099 0.0016923 -0.006515 0.010251 0.00033043 -0.0084495 -0.0058602 0.011688 0.013555 -0.0024255 -0.0059714 -0.0072066 -0.010413 -0.00098985 0.0016036 0.0068337 0.012258 0.0084299 -0.0026567 0.011183 0.0021414 0.006555 -0.0080837 -0.0038404 0.0031258 -0.0062821 0.0060974 0.015945 0.0074175 -0.00069052 -0.001944 0.00242 -0.00036684 0.018845 -0.0024547 -0.00089601 0.0032719 -0.0051328 0.0077785 -0.0038001 -0.011343 
steak 0.0053513 -0.0079323 0.0083784 -0.0055443 0.0088958 0.0094304 -0.0044237 0.0067091 0.0057137 0.010398 0.005231 -0.0018677 0.0004611 -0.001556 -0.0042606 0.0046298 0.0065811 -0.0087999 -0.0085019 0.0057338 -0.0062179 -0.0057435 0.0066004 -0.0067428 -0.0009614 -0.0047187 0.0025906 -0.0013095 -0.008207 0.0040013 0.0055514 0.0027831 -0.0055974 -0.002772 0.00060712 0.0023742 -0.0073537 -0.0088954 -0.0049251 0.0016286 -0.0020188 -0.0074836 -0.0013535 -0.0052486 -0.0019911 0.0091524 0.0044677 -0.0011714 0.0071569 0.0088344 0.0099318 0.0079106 -0.0058624 0.0071809 0.0012946 -0.0035786 -0.0075851 -2.2815e-05 -0.0033685 -0.0087553 0.0042479 0.0026789 0.0093644 -0.0093537 0.007438 -0.007538 -0.0085043 0.0049179 0.00013203 -0.0092492 0.0019922 -0.0021764 -0.0089414 0.0064072 0.00053081 0.0074774 -0.0024415 -0.0074614 0.0043233 0.009163 0.0084874 0.0080066 -0.0003527 -0.0090876 -0.0042035 -0.0083784 0.010087 -0.0077145 -0.0024774 -0.0031342 0.0020263 -0.0083918 -0.0035319 0.0034685 0.0019061 -0.002097 0.008039 -0.0037632 -0.0088939 0.0054836 
3.50 0.0012942 0.0054725 0.0054934 -0.0028576 -0.0053917 0.01007 0.0031816 0.0032897 -0.0029902 0.0021493 -0.0010189 0.0084324 -0.010059 0.0040646 -0.0088236 0.0060298 0.00769 -0.0030702 -0.0037432 -0.0078177 0.0063347 0.0051826 -0.005109 0.0015866 0.0082153 0.00051215 -0.007686 -0.003949 -0.00016773 -0.006043 0.0013103 -0.0060212 -3.3336e-05 -0.0050589 -0.0058776 -0.0022439 0.0062716 0.0047105 -0.0070724 -0.0010303 0.0055519 0.0065559 -0.0011431 0.0092507 0.0058779 0.0058651 -0.0076531 -0.0057152 -0.0095722 0.00016723 0.0053304 -0.0094879 -0.0071726 0.00096498 0.00041798 -0.0050219 -0.0076966 0.0023103 0.005586 0.0062062 0.0059455 0.0088485 0.0039942 0.0011473 0.0052945 0.00054392 0.004924 -0.0026785 0.0065029 -0.0042026 -0.00066247 -0.0053124 -0.0076781 0.0069238 -0.001363 0.0073007 0.0063936 -0.0066273 0.0053747 0.0011015 -0.0086638 -0.0081043 -0.0058264 -0.0065725 0.0053303 -0.0010944 0.01009 -0.0038861 -0.0065617 0.0037467 -0.0069057 0.00029946 0.0030779 -0.00072658 0.0017787 -0.0038439 -0.002315 0.0092628 0.0084289 0.0022598 
sub-tot -0.00035931 0.0045904 -0.0045337 -0.011539 0.0057075 0.0062962 -0.00056816 -0.0022184 0.007691 0.0010764 0.0027999 0.01454 0.00049245 0.011482 -0.0056393 -0.0080341 -0.0076415 -0.0057178 -0.00088316 -0.0016172 0.0014001 -0.00029635 0.010748 -0.0083272 -0.0042841 -0.0075124 0.001555 0.0047786 -0.002517 0.012501 -0.0041039 0.0094779 -0.0097761 -0.0024772 -0.0070404 -0.0079283 0.002821 -0.0011636 -0.010099 0.00099526 -0.0034267 -0.010383 0.007777 0.0045928 0.0014019 -0.006543 0.0089696 0.0014112 -0.0045092 0.0063428 -0.003514 -0.0027769 0.0055977 -0.0088929 -0.015139 -0.010728 -0.0054575 0.0054248 -0.0084924 0.0052256 0.0065684 0.0031815 0.0051747 -0.0023011 -0.0058823 0.011318 0.0013807 0.0039127 0.0052893 -0.0041003 0.0032042 0.008854 -0.004117 0.0087805 -0.007587 -0.0006046 0.0043081 -0.0026199 0.00069515 -0.0090102 0.0080539 0.0035992 0.0068675 -0.0067837 0.0050523 0.0034129 0.0085482 -0.0051197 -0.0055728 0.002273 0.0124 -0.0013227 0.018771 -0.0020727 -0.0084849 -0.0020011 -0.0068621 0.0044442 -0.00024871 -0.011917 
med -0.0048058 -0.00054255 0.0058663 -0.0081641 0.010061 0.0069093 -0.0047551 -0.0015253 0.0027854 0.011062 0.0073636 0.011997 -0.0069923 -0.0011842 0.0086597 -0.0063261 -0.00039745 0.0052318 -0.0050762 -0.0090795 0.0056688 -0.0051199 0.0030375 -0.010086 -0.00026667 0.006035 0.0078822 0.011314 -0.0035762 0.013072 0.0052552 0.010246 -0.0064613 0.0062287 0.0012648 -0.00011534 0.0092355 0.0046242 -0.0083618 -0.011177 -0.0047528 0.0063817 -0.006037 0.0013842 0.0094121 -0.0010674 0.0045463 0.0054977 -0.0018323 -0.0014636 -0.006643 0.0063083 -0.0045254 -0.0024962 0.0012411 0.0017706 0.0066717 -0.0053844 0.010286 0.0015914 -0.0088923 0.004686 0.0074821 0.0034431 0.0063666 -0.0047835 -0.00023802 0.0077768 0.0087423 -0.0095509 -0.00073071 -0.0060939 -0.0055396 -0.00064882 -0.006276 -0.0079715 -0.0082402 0.0055121 0.0031476 0.0056786 0.0039815 0.0059689 -0.0017969 -0.008439 0.008199 -0.0052979 0.011553 0.0074407 -0.0095862 0.0029085 -0.0059751 0.003968 0.0010596 0.0070142 -0.0075566 -0.011186 -0.0016009 -0.0004182 0.010356 0.0020966 
mexican 0.0094202 -0.0010226 0.0012417 0.0035464 0.0035088 0.0057972 0.0024219 0.0045405 0.00873 -0.0016229 0.0028188 0.0089687 -0.006334 0.0077149 -0.0058641 0.0037315 -0.0025134 0.0064946 0.0011441 0.0065585 -0.00037109 0.0058334 0.0020531 -0.0051027 -0.0093295 0.0074192 -0.0084971 0.0031862 0.0015136 0.0058129 -0.0059066 0.0093675 -0.0033399 -0.0022299 -0.0033918 -0.0064297 0.0034236 -0.010768 -0.0011708 0.0060404 -0.0068942 -0.008285 0.0097289 0.0059264 -0.0084909 -0.0042169 -0.0037752 0.0017044 -0.0098235 0.0012146 0.0046744 -0.0073968 0.003817 0.0036261 -0.0024486 -0.011891 -0.0059978 0.0033599 -0.0044178 0.0057037 0.0026414 0.0031784 -0.0026719 -0.0073887 -0.0087354 -0.0019178 -0.0027767 0.0059893 0.0069585 0.0060342 0.0006175 0.0056346 0.0014554 0.0062501 -0.010748 -0.008232 0.010546 0.0091996 0.0033623 0.0023545 -0.0086771 -0.0047705 -0.0051606 0.0029964 -0.0015064 0.010324 0.008759 -0.0061884 -0.00025186 -0.0059582 0.0013633 -0.006516 -0.00061065 -0.0056345 0.0027936 -0.0091327 -0.0054227 0.00025611 0.0038873 0.0065464 
tea 0.00034992 0.0010326 0.00060553 -0.0054233 0.010347 -0.0053405 0.0028071 0.0085861 -0.0049623 -0.0013347 -0.010409 0.011938 0.0016353 -0.0067229 0.010277 -0.010247 -0.0050815 -0.0089089 0.0058137 0.0019803 0.0038584 0.00045717 0.0043095 0.0074297 0.0005531 -0.0027935 0.0043707 -0.0020845 0.0058905 -0.0048294 0.011335 0.0057025 -0.0005902 0.0014719 -0.0056537 -0.0038365 -0.00023439 -0.0049179 0.0003438 0.00085009 0.00054234 -0.0040875 -0.00049725 -0.0035287 0.0055834 -0.00013393 0.0044418 -0.0054241 0.0077949 0.0065655 -0.0083909 0.0022585 -0.0063948 -0.006555 0.0035979 -0.012632 -0.0012583 0.0074146 -0.00048099 0.0028707 0.0018583 -0.0086464 0.012489 -0.0062974 -0.00016406 0.0051168 0.0044725 -0.0052828 0.0073511 -0.0075297 -0.0081657 -0.0085634 -0.0013755 0.0095023 -0.010899 0.0019178 -0.0010467 0.0059946 -0.0034605 0.0062378 0.0068224 -0.0064185 -0.0024999 -0.00033256 -0.005085 -0.0061325 -0.0018724 -0.0013976 -0.0093333 0.0047082 0.004605 -0.0068105 0.011018 -0.007647 -0.0066768 0.0017531 -0.0030253 -0.0078794 -0.0078491 -0.0026417 
street -0.010277 0.0071358 0.014747 -0.003627 0.011915 0.016549 -0.0043114 -0.00039286 0.016902 0.010704 -0.0016687 0.013698 0.0088179 0.010777 -0.003479 0.0025151 0.00021782 -0.0036063 0.0054589 -0.015719 -0.016381 0.0069525 0.01205 -0.014299 -0.012757 0.012951 0.015093 0.0099724 -0.012345 0.011576 0.015301 0.0082488 -0.0090511 -0.021164 -0.0079169 -0.0062538 0.0076212 -0.0063909 -0.0016446 -0.015533 -0.0057704 -0.0093334 -0.00011591 0.0086862 0.013164 -0.010643 0.019572 0.0096241 -0.01917 -0.007548 -0.0040702 -0.00021439 -0.0080709 0.01041 -0.010472 -0.0098333 -0.022686 -0.0094501 0.008498 0.0054659 -0.0049771 -0.0076306 0.005748 0.0074884 -0.012332 0.005281 0.0035702 0.0076323 0.0072406 -0.010724 0.0038211 -0.00092108 -0.0040615 0.0096279 -0.013911 -0.0046515 0.00071672 -0.007384 0.01855 0.004363 0.01091 0.0089494 0.010294 -0.010493 -0.0068461 0.0050389 0.0051373 0.010153 -0.0073075 0.0096628 0.019075 -0.0025772 0.014964 -0.011204 -0.0084874 -0.0028493 0.00037787 0.0098543 0.012189 -0.0032248 
lunch -0.0024529 -0.0010682 0.0020583 0.0020088 0.00051032 0.0058184 -0.0050219 -0.0094417 -0.0083277 -0.00067774 0.00075278 -0.0088747 -0.00088626 -0.0070309 -0.00046327 -0.01001 -0.0067414 0.0015386 0.004764 0.0024187 -0.0018621 -0.0043131 0.0059315 0.00070413 0.0078608 -0.0063311 -0.0054873 -0.0088811 0.0067162 -0.0091408 -0.0036785 -0.0071559 -0.0084963 -0.0064555 -0.0080145 0.00058271 0.0019257 -0.0084869 -0.0052385 0.00038855 -0.0061045 -0.0038275 -0.0098357 0.0097716 -0.0036438 -0.0088203 0.009968 -0.00077608 0.0026121 0.0019408 0.0074529 -0.0064297 0.0080784 -0.0015722 -0.0082055 -0.0073568 0.0036476 0.0080612 -0.0082994 -0.0015963 -0.0099351 0.0020657 -3.7229e-05 0.0062976 -0.0076391 0.0099802 -0.0080736 0.0065149 -0.0055279 0.0045906 -0.003108 -0.0032828 0.0025861 -0.0064455 -0.00090576 -0.0071842 0.0070475 0.0067724 -0.0049357 0.0077958 -0.001357 -0.0059753 -0.0028952 -0.0097653 -0.0063238 -0.0084118 -0.0095669 0.0043272 0.0091082 -0.006829 0.0062197 -0.0081319 0.010192 -0.0060357 0.0060882 -0.0073448 -0.0066511 -0.0090337 -0.005449 -0.0049451 
chip -0.0061924 -0.0085256 0.0023387 -0.0060843 -0.0054549 -0.0057535 0.00057228 -0.0072685 0.0030779 0.0084963 0.0027358 -0.0032725 0.00842 0.0077492 -0.0065833 -0.002488 0.0056033 -0.0033492 0.0056341 -0.0076284 0.0089119 0.0020333 -0.0015161 0.0043017 -0.0070434 0.0060789 0.0010424 0.0021194 -0.0081696 -0.0016759 0.0079316 -0.0067173 -0.0076813 0.0038476 0.0078788 -0.0090489 0.0022455 0.0033445 -0.010333 -0.0078985 -0.0098742 -0.0023914 0.0063376 0.0034189 -0.0092235 -0.0083028 -0.0045475 0.0017149 0.007738 0.0037521 -0.0070447 0.0054876 -0.0017318 0.009841 0.0038808 -0.0090624 -0.0071705 0.00038972 -0.00016443 -0.0073208 -0.00094762 0.0033965 -0.0024909 0.0055335 -0.004539 1.2642e-05 0.010297 -0.00011313 0.0049116 -0.0056555 -0.0099776 0.0055321 0.0032954 -0.0032392 -0.0090933 -0.00287 -0.0039813 0.0033396 -0.0033211 -0.0062525 0.0011888 0.0070668 -0.0036597 0.0033255 -0.00092149 -0.0053662 -0.0022578 -0.0058688 0.0059341 -0.0027814 0.0048214 0.0082613 0.0051961 0.009591 -0.00051369 -0.0037415 -7.5063e-05 0.0087838 0.0037049 0.0033293 
4.95 0.00067087 -0.003994 -0.0024335 -1.6567e-05 -0.0039348 -0.0031072 -0.00041151 0.0028859 0.0081204 0.0072969 0.0069667 0.0057074 -0.004314 0.012738 0.0096897 -0.0072004 -0.0029895 -0.0045864 -0.0060619 -0.016142 -0.0090697 0.0035027 -0.0060469 -0.0022639 -0.0057098 -0.0028088 -0.0012902 -0.0038253 -0.0030478 0.015153 0.0099337 0.011134 -0.0097323 -0.0088931 -0.0066187 -0.0031958 -0.0030127 -0.0075831 0.0030393 -0.0014945 -0.0058875 -0.010329 -0.0021297 0.007583 0.0091764 0.0043551 -0.0030123 -0.0025598 -0.0011861 -0.010446 -0.009568 0.0093203 -0.010675 -0.0039385 0.0045152 -0.012211 -0.012809 -0.00045185 0.0022242 0.0045789 0.006083 -0.0042617 0.012259 0.011108 0.0056833 0.0070342 0.0082581 0.0027567 0.0019622 -0.0015372 -0.0031319 0.007137 -0.008819 0.0032717 -0.011055 0.0064563 0.0070907 0.0072213 0.011388 0.0013081 -0.0020015 0.001841 0.007224 0.0062309 0.0094687 -0.0084585 0.0021598 -0.0030639 -0.0055838 -0.0051953 0.0064864 0.0016128 0.010515 0.0044935 0.0028896 -0.0026942 -0.0083242 0.0060095 -0.0002039 -0.0030634 
onion 0.0071849 -0.0037398 -0.00084111 -0.0043683 0.00080439 -0.0053683 -0.0093208 0.0065808 -0.00053669 0.00075917 -0.011088 0.0045359 0.0076803 0.011293 -0.0060344 0.0034803 -0.0019314 -0.0044538 0.00083122 -0.0019875 -0.0085686 0.0066412 0.012519 0.0031727 -0.012281 0.0040372 0.01118 0.0091323 0.0022435 0.015825 -0.0024606 -0.0027021 -0.0017447 -0.0027946 -0.006054 0.0059182 -0.0046512 -0.010852 -0.0074666 -0.0084285 -0.012038 -0.0096057 0.0048775 0.0081238 -0.0020033 -0.0096097 0.0061124 0.0077896 0.0023796 0.0054608 -0.0012378 -0.0050754 -0.0073931 0.0070626 0.00026381 0.0029605 0.0021323 0.0049746 0.0018442 0.0041656 0.0021262 -0.0011215 0.0030739 0.00049226 0.0064055 0.006798 0.01236 0.0071549 0.0022249 0.0073743 -0.0047792 0.0080755 -0.010452 0.0085547 -0.0068367 0.0034014 0.0044124 -0.0061195 0.012578 -0.0079728 -0.00036512 0.0048895 0.0028194 -0.0038307 0.009086 0.0077459 0.010721 0.0073637 -0.0019632 0.0079385 0.0066007 -0.00089002 -0.00031935 0.006026 -0.0034611 0.00079567 -0.0091489 0.0010152 0.00018034 -0.0011894 
11.00 -0.0065942 0.0087306 0.0070466 -0.0058398 -0.0056844 -0.0061882 -0.0055449 -0.0078998 0.0021423 0.0020217 0.0032429 0.0094329 0.0020288 0.010614 -0.00011102 -0.0043014 -0.0059369 0.0060831 -0.00061972 -0.011927 -0.0048148 -0.010083 0.0040733 -0.0045081 -0.0095732 0.0017022 0.0056607 -0.00774 0.0083209 0.0097599 -0.0062003 0.0045509 -0.0060328 0.0025305 0.0053756 0.00282 0.0068394 -0.007127 -0.0028054 -0.0058711 -0.0069161 -0.0045463 0.0015614 -0.0007647 -0.0070419 -0.00042159 -0.0036893 0.010508 0.0018615 -0.0096094 -0.0030196 0.0013353 -0.0096619 -0.0087017 0.00017382 0.0054536 0.0038538 0.0090298 0.009758 0.0085461 -0.0066143 -0.00060008 -0.0050769 -0.0066869 0.0092157 -0.00024231 0.00065958 -0.0059335 0.0092678 -0.00063345 0.0048053 -0.0082321 0.0043987 0.0044135 -0.00057179 0.010151 -0.002093 -0.0026645 -0.0054944 -0.0026789 -0.00641 -0.00046666 0.0078802 -0.0080765 0.00062973 -0.0064267 0.0057552 -0.0067972 -0.001029 0.0042896 0.0056347 0.0051623 -0.0045971 0.0028299 0.0069244 0.0062134 0.0078283 0.0020849 0.0072104 0.0045796 
wing -0.0069809 0.011163 -0.0034563 0.0047273 0.0079729 -0.0042196 0.0042351 -0.0066528 0.00094603 0.0058325 -0.005497 6.7406e-05 0.0063058 -0.0036161 -0.0039302 0.0028946 0.0022263 -0.0012386 -0.0044829 -0.010475 -0.011971 0.0031267 -0.00084318 -0.0046935 0.0054437 -0.006364 0.0027897 0.0098629 -0.0035018 0.011274 -0.0073024 -0.0055694 0.0019682 -0.0015843 -0.011745 -0.0088673 0.0090547 -0.0090026 0.0022474 -0.00012117 -0.0046972 0.0033198 0.007602 0.0094266 0.0032375 0.0056925 0.0093199 -0.0045316 -0.004782 -0.0050111 0.0023898 0.00044777 -0.00059962 -0.005936 -0.0080254 0.0016745 -0.01016 0.0061817 0.009096 0.010311 0.0023149 0.0033409 -0.005969 -0.0088964 -0.010597 0.0023984 -0.006086 0.0085198 -0.0084569 -0.0095449 -0.010048 -0.0086745 0.0017448 -0.0054386 -0.0095559 0.0055396 -0.009032 0.0017238 0.011619 0.0036153 -0.004883 -0.0038931 -0.0034222 -0.00099401 -0.0089578 -0.0022566 0.0088631 0.0029782 0.0082703 0.0094148 0.010469 0.004153 0.0069877 -0.0050571 0.0057285 0.0063728 0.003193 -0.0074502 -0.00090858 0.0018414 
salad 0.0020565 -0.0038799 0.0056593 -0.0022134 0.0021146 -0.0037286 -0.0030845 0.0095802 0.00040167 0.0018669 -0.0078693 0.0018807 -0.0025395 0.0034813 -0.0075082 0.0043159 -0.0024919 0.0077857 -0.0024672 -0.010254 0.0022159 -0.0069469 0.0033899 0.0031116 -0.0042556 -0.0053195 -0.002903 0.01071 0.0070991 -0.0009649 0.0086783 -0.0043995 -0.0010617 -0.0041045 0.0039522 0.006783 0.009547 -0.0060835 -0.0019035 -0.0045746 0.0067046 0.0028388 -0.0024811 -0.0064889 0.00066321 0.0018534 0.0094284 9.0028e-06 0.0042848 -0.0059876 -0.0086725 -0.0054859 0.0020474 -0.0051403 -0.0015769 -0.0023063 0.0038091 -0.0067728 0.0092793 -0.0065463 0.0027195 -0.0027543 0.0097319 0.010545 0.00115 0.0071175 -0.0044583 -0.0045581 0.0047579 0.0058255 0.0025068 -0.0020167 -0.0089194 0.00477 -0.0048446 0.0034414 -0.0067912 -0.0060461 -0.007537 -0.0038355 0.009628 0.0013999 0.0076343 0.005764 -0.0090105 -0.005441 0.00018714 0.0024946 0.0053367 0.0092609 -0.0053077 0.0053804 0.0083979 0.0092038 0.0058775 -0.010562 -0.0031871 0.0010404 -0.0052904 -0.0076944 
2.50 0.0013409 -0.0065888 0.0036185 0.0073015 0.0052675 0.0065574 -0.0050982 -0.0039618 0.0026356 0.0048774 0.00224 -0.0049247 0.0055384 0.0027526 -0.0021174 -0.00403 0.0098887 0.002278 -0.0053131 -0.0099176 -0.0039946 -0.0054777 0.009834 -0.0059974 -0.0024699 0.0025995 -0.0073404 -0.0034368 0.0036179 0.0082276 0.0046844 -0.0092505 0.004905 0.0029758 -0.005721 0.0058561 -0.00075242 -0.0090209 0.0083484 0.0017919 0.0038069 -0.0027551 0.0048817 0.0090627 0.0056092 -0.0099682 -0.0097049 -0.00058296 -0.0063752 0.0080559 0.0019126 -0.0084279 -0.0020892 0.0086306 -0.0071949 0.0087914 -0.0039386 -0.0087363 -0.0013995 0.0074382 0.0094949 -0.0063544 -0.0068432 0.0016798 0.0015264 -0.0026929 -0.0097139 0.0020678 -0.0074346 -0.0094428 -0.0010299 0.0022038 -0.0051245 0.0054303 -0.0053781 0.0085503 0.0038362 -0.0067374 -0.001287 -0.0080003 -0.00086629 -0.00027423 0.0035376 -0.009454 -0.0095472 -0.0046638 -0.0078602 0.0058681 -0.0020315 0.00012659 -0.0030215 -0.00079304 -0.0067051 -0.005444 0.0016743 0.00075947 -0.004801 -0.0071101 0.0099722 -0.00069027 
combo -0.0033395 0.0050096 0.0014934 -0.0082633 -0.0096817 0.0077437 0.0045493 0.0079168 0.005525 -0.0050783 0.0066838 -0.0038685 -0.0009386 -0.0023785 0.0087689 -0.0048108 -0.0079852 -0.0078778 0.0016554 0.0035695 -0.0076913 -0.0082749 0.0058708 0.0096597 0.0049002 -0.0050978 -0.006657 0.0085649 0.0084381 0.0019655 -0.0037392 -0.0030978 0.00017196 0.0086192 -0.0049482 0.0018988 0.00414 0.0057298 0.0081277 -0.0072569 0.0026245 0.0089095 -0.005475 -0.0018271 0.0025749 -0.0077327 -0.0049022 0.0030043 0.0057315 0.0074506 -0.0020649 0.0020027 0.0023164 0.0029651 0.004344 0.0057683 -0.0088442 -0.0075885 -0.0070014 -0.0097924 0.0021484 -0.0078286 0.0089155 -0.0079972 -0.0032393 -0.0017359 -0.0052922 0.0040739 -0.0046803 -0.0075365 0.0054866 0.0080723 0.0072039 0.0067397 -0.0091189 0.0095866 -0.00021173 0.005238 -0.0011542 -0.0079713 -0.0019041 -0.0018716 0.0025697 0.0051402 -0.0051774 0.0079786 0.0090377 -0.0024389 -0.0015673 0.0093717 -0.0059365 -0.0043644 -0.0018846 0.0084737 0.00068762 0.0056593 -0.0020879 0.0091995 -0.0063146 0.0077303 
16.00 -0.00064782 0.020588 0.0095294 -0.020978 0.024545 0.020541 0.0060956 0.015215 0.018895 0.027041 -0.0222 0.037929 0.011316 0.034677 0.023881 -0.0084504 0.0055119 0.0027944 -0.0094954 -0.040904 -0.038504 -0.0042881 0.018916 -0.019247 -0.0083098 0.015789 0.020674 0.025115 -0.010327 0.02779 0.022719 0.0050685 -0.0029641 -0.020094 -0.028005 -0.015902 0.0065554 -0.00020114 -0.01693 -0.021072 -0.010906 -0.018287 0.01929 0.02771 0.03061 -0.017271 0.017502 0.019247 -0.032082 -0.021382 0.0043325 0.0061785 -0.0078607 0.0084176 -0.014394 -0.038619 -0.033808 -0.0086768 -0.0050338 0.042121 0.024549 -0.015978 0.03236 0.0018066 -0.0062677 0.013331 0.010919 0.029802 0.014791 -0.013506 -0.0067039 -0.012557 -0.01508 0.0051429 -0.022812 0.0070721 0.014373 0.00078976 0.033147 -0.0035098 0.0086266 -0.0053978 0.009859 -0.012778 -0.0010153 0.013764 0.030111 0.013055 -0.027129 -0.0060219 0.035935 0.0016795 0.046999 -0.0025017 -0.036281 -0.022503 -0.00030265 0.01323 0.0075373 -0.015014 
rice -0.0043901 0.011453 0.0029115 -0.0047868 -0.0054862 -0.0046454 -0.0022855 0.006647 0.0082949 0.0027044 0.0021945 0.011177 0.002827 0.0054797 0.0099221 -0.0072106 0.010682 0.0015254 -0.010986 -0.004053 -0.0091926 -0.0025462 -0.0018607 0.0026564 -0.0030782 0.0055459 0.0081146 0.0070231 -0.0022925 0.0079463 0.00062349 0.0093091 -0.0072257 -0.013582 -0.0084535 -0.01081 0.0052217 -0.0024779 0.0057966 0.0019207 -0.0093676 -0.0045726 -0.0002778 -0.003865 0.0025847 0.0069816 0.011311 -0.0080833 -0.010932 -0.0062308 0.00076391 -0.00058928 0.0060873 -0.0063945 0.0040688 -0.0095806 0.0008288 -0.0027652 0.008096 -0.0040606 0.0094306 0.0032902 0.0091995 0.00039705 0.0029758 0.010489 -0.0070205 0.013707 0.010088 -0.0013114 -0.0049913 0.008346 0.0070901 0.002983 0.0066018 0.0048621 0.00142 -0.0049029 -0.00091652 -0.0075384 -0.0076755 0.0026704 -0.005877 0.0085846 -0.0086935 -0.0015756 0.0045316 -0.0032652 0.00087733 0.0056687 0.011573 -0.0027042 0.0010516 -0.0013772 0.00047464 0.006326 -0.0011239 -0.0085271 -6.9183e-05 -3.7591e-05 
french -0.0011312 -0.0010418 -0.0010335 -0.0015906 0.0033698 0.003179 -0.0089397 -0.0039335 0.0030723 0.0064473 0.0068587 0.0074804 0.0073329 -0.0044363 -0.0044031 -0.0077772 0.0091273 0.0050015 -0.0077856 -0.0081651 -0.0021762 -0.0028582 -0.0094272 -0.0080528 0.0090067 -0.0077232 0.0097027 0.0012773 0.0062134 0.0017263 0.00086826 0.0075099 0.0053203 0.0025054 0.0071521 6.7168e-05 0.0072062 0.0032006 0.008835 0.0083333 0.0026716 0.0085823 0.007242 -0.0062777 0.0016911 -0.0012522 -0.0022717 -0.0012693 0.008935 0.0093578 0.0044406 -0.0026908 -0.0018429 0.0036514 0.005642 0.0087893 -0.0012074 -0.0094175 0.0090238 0.0099396 0.0045452 0.0030673 0.0038791 0.008115 -0.00041173 -0.0013279 0.006878 -0.0015406 0.0079642 -0.0037105 0.0075466 -0.0078264 -0.010088 0.0065684 -0.0094153 0.00080745 -0.0054369 -0.0099741 -0.0074469 0.0023639 0.0029939 -0.0020124 0.0098255 0.0086006 -0.0068718 -9.5327e-05 0.0016476 0.0086438 -0.0097932 0.0068887 0.0062317 -0.0077203 -0.0060933 -0.0026512 -0.0055067 -0.0062088 0.00091138 0.0014892 0.0047354 -0.0066742 
red -0.0074607 0.0061151 0.0019406 0.0046417 0.0025023 -0.005888 -0.0088688 0.0072901 -0.00060037 -0.0042994 0.0069429 0.014789 -0.0044036 0.013659 -0.0068121 -0.0087653 0.001518 0.0064517 -0.0010062 0.0010855 -0.01054 -0.0095891 2.9007e-05 0.0039644 -0.0025864 -0.0072816 0.0029543 -0.0044684 -0.0043421 0.0051963 0.002647 -0.0083388 0.0058609 -0.0041076 -0.006917 0.005293 -0.0057628 0.0059114 -0.0015027 0.0010015 -0.011913 0.002953 0.008394 -0.00068028 0.0048451 -0.010246 0.010589 -0.0034744 -0.01243 0.0058865 0.001881 -0.0023868 0.00069185 0.0035479 -0.0012945 0.00068135 -0.015593 0.0087671 -0.0011781 0.0049137 0.0036585 -0.0033761 0.0044227 0.00093282 0.00074431 0.0059335 0.0058963 0.0078093 0.0072519 -0.0027642 0.0045159 0.0050779 0.0062084 0.0013004 0.0017604 0.0029741 0.0057136 -0.0062785 0.0062626 -0.0051577 0.0028202 0.0059435 0.0096111 0.0067306 0.00818 0.00084321 -0.0011204 0.0014187 0.0026556 -0.0046503 0.015298 -0.0053916 0.016182 -0.00065728 -0.01309 0.0030831 0.0024761 0.0044428 -0.0042102 -0.011684 
7.00 0.0051296 0.0047862 -0.0012737 -0.010087 -0.00095632 0.0080166 -0.00075913 0.0012544 -0.0038119 0.003402 -0.00070215 0.015171 0.0034347 0.0085569 0.0051447 -0.0080736 0.00022947 0.0046661 0.0086497 -0.011277 -0.0092029 -0.010695 0.0090366 -0.0075693 -0.0051337 -0.0074349 0.0018094 -0.00015645 0.0076114 0.013386 0.0089116 0.0059924 -0.0017732 -0.004965 0.00061893 0.0026516 0.0047743 0.0063105 -0.012227 -0.01189 0.00034358 0.006916 -0.0064357 0.01274 0.0069135 0.0039277 0.010668 0.005945 0.0015399 0.0060733 -0.0035898 -0.0041693 -0.0024316 0.010365 -0.0062687 -0.0028864 -0.0018774 0.0078068 0.0064669 0.010973 0.0086359 0.0041972 0.012244 0.0007871 6.688e-05 0.0045262 0.0034779 0.0055886 -0.0066012 -0.0088576 -0.00050839 -0.0049374 -0.0057623 -0.0023444 -0.0094949 0.0014231 0.0088621 -0.0012779 -0.0039521 -0.0080624 0.0052022 0.00068295 0.0038215 -0.0087892 -0.0085195 0.00037364 0.011789 0.010003 0.0046343 -0.00011165 0.004373 0.0010306 0.017702 -0.0093263 -0.0094009 -0.010715 0.0048799 -0.0036001 0.0065054 0.0015802 
glass 0.0095425 -0.0039553 0.0056422 0.0071763 0.0067469 -0.0026378 0.004433 0.0076257 0.0022292 0.0036893 -0.0050652 0.012081 0.0059519 -0.0043461 0.0099934 0.0010382 -0.0054981 0.0089281 -0.0017343 0.00021021 0.0053279 -0.0088265 0.0072498 -0.0012487 0.0025867 -0.0044986 0.006404 0.0060701 0.003875 -0.0050553 0.0014317 -0.00012523 0.0049643 0.007701 0.0035568 0.0051765 0.0012358 -0.003974 -0.0070619 -0.0073208 -0.00090559 0.0075565 0.003663 -0.0063408 0.0081134 -0.0059299 0.010126 0.0074216 0.0029932 0.00048204 -0.00049201 0.0047291 0.0011694 0.0059118 0.0040709 -0.010197 0.0068988 -0.0040034 -0.0022206 -0.0044024 -0.00060796 -0.0086665 0.0091765 0.0012 -0.0048361 0.0089689 -0.005662 0.0023924 0.001947 -0.0095929 0.0048998 -0.0046986 -0.0016256 -0.0074358 0.00515 -0.0025787 0.001716 0.0030442 0.0038947 -0.0071514 0.0082334 -0.0093032 0.0031597 -0.0057761 0.0074018 -0.006801 0.0035476 -0.001772 -0.0047023 -0.0063602 0.00037441 -0.006777 0.0081513 0.0034798 0.008374 0.0047918 -0.0059236 -0.0048469 0.002147 -0.0013267 
ave -0.0020829 0.0087381 -0.0044153 -0.0023386 -0.0051906 0.0056451 -0.0060165 0.0095078 0.0040909 -0.0085558 0.0035997 -0.0051228 -0.0084565 0.00098236 -0.0028008 -0.0063562 0.0089558 -0.0083576 0.0030266 0.0088052 -0.0031608 -0.0067877 -0.0080644 0.0071144 0.0065241 0.0073405 0.002893 -0.0097191 0.0049269 -0.0036984 0.0085953 -0.0072897 -0.0099059 -0.0019877 -0.0068229 -0.00032638 -0.0021335 0.0031198 -0.0062637 0.0076936 0.0059695 -0.0085045 -0.0079716 -0.0077602 0.0074603 0.00966 0.0074153 -0.0055344 -0.0042674 -0.003469 -0.0079939 0.00012217 -0.0043559 0.0098488 -0.0056032 -0.0012575 0.0069156 0.0028314 -0.0049749 -0.0085741 0.0067121 -0.0048642 -0.0079141 0.0013412 1.1323e-05 -0.0073962 0.0015285 -0.0040037 0.0027124 -0.0028158 -0.0054574 -0.0072327 0.0048116 -0.00723 -0.0091327 0.00033524 0.0084265 -0.0051515 -0.009331 0.0050782 0.0088009 -0.0097332 -0.001757 0.00033622 0.0039283 0.0049425 0.0078979 0.001511 -0.0067835 -0.0001848 0.0050389 0.0095556 -0.0019502 -0.0027838 0.0048177 0.00052642 -0.0010606 0.0098015 -0.0076025 -0.0017849 
type 0.001985 0.0093383 0.0089319 0.0061666 0.0088135 -0.0078646 0.00016088 -0.0050683 0.0073505 0.0014482 -0.0039492 0.00692 -0.0092085 0.010883 -0.0018754 0.0041591 -0.0020718 0.0025961 0.0089805 -0.0024454 -0.0095713 -0.009779 0.0012612 -0.0099297 -0.0052544 0.0070399 -0.0044483 0.0096316 0.0043391 -0.0050067 -0.0081474 0.0094898 -0.0052969 0.0072543 0.0015914 4.3881e-05 -0.0033286 -0.0089653 -0.0088292 0.0056055 -0.00030995 0.005916 -0.0066425 -0.0035683 -0.0051376 -0.0013087 0.00070917 0.0054109 0.0086388 0.0011744 -0.001116 -0.0023885 -0.00063653 0.0094537 0.006444 -0.00011157 -0.0041526 0.0055358 -0.010004 0.0061589 0.0055037 0.0095691 -0.005258 0.0023224 -0.0037972 0.010006 -0.0026788 -0.0028772 0.008809 -0.00073022 0.0075993 -0.0028403 -0.0022322 0.006802 0.0033584 0.0092313 0.0088417 -0.0048597 -0.00079218 8.0108e-05 0.00024732 -0.0074 -0.0021353 0.00122 0.00016992 0.00953 -0.00015495 0.0031553 -0.010594 -0.00066837 -0.0070345 0.0089309 0.0021457 0.0089813 0.0003404 0.0018328 0.0038179 -0.0094568 0.0080276 -0.0090362 
open 0.003009 -0.0055116 0.0038451 -0.0072378 -0.0083029 0.0091278 0.0073625 0.0049351 0.0082884 -0.00095887 -0.010504 -0.0041136 -0.00041822 0.00012959 -0.00043069 -0.0060543 0.0089574 -0.0018204 0.0036208 0.0024913 -0.011472 0.0019785 0.010682 -0.0056703 -0.0033246 -0.0061121 -0.0061152 0.0048758 -0.004466 0.0075267 0.0071634 0.0052368 0.0057926 0.0025397 -0.007162 0.0080084 -0.0029603 0.0076049 -0.0023776 -0.0091096 0.0059419 0.002521 -0.00037319 0.011382 0.0072882 -0.0032594 0.00026606 -0.0048353 0.0049223 -0.0093941 -0.0038464 0.0094012 0.0071426 -0.008918 0.0071282 0.0054067 -0.0018812 -0.0013877 0.0011648 0.0054738 -0.00071156 -0.0088485 -0.0076498 -0.0026576 -0.0021107 -0.00067798 0.00098367 -0.001851 0.0082997 -0.0065704 -0.0084995 0.0036139 -0.0093986 0.0042227 0.0085031 0.0068209 0.0031521 -0.0027359 0.0039145 -0.0013575 -0.0038397 -0.0022259 -0.0040862 0.007333 0.0091076 -0.001986 -0.0029588 0.0061763 0.002328 0.0087371 0.0081053 0.0072968 0.0054209 -0.007374 -0.0070927 0.0052898 -0.0042899 -0.0083048 0.00032598 0.0047387 
drink 0.0047128 -0.00037093 0.0069129 -0.0075229 0.010694 0.0077417 -0.0054113 0.002424 0.0066111 0.018697 0.00020489 0.021694 0.0075005 0.0082954 -0.00061497 -0.012038 0.011406 0.0096657 -0.0085584 -0.021507 -0.0083438 -0.012504 -0.001657 -0.0048461 -0.0032231 0.012258 0.0031728 0.0067228 -0.0071816 0.01529 -0.00081495 -0.0029348 -0.0072918 -0.020946 -0.00070245 -0.0069324 -0.0035607 -0.015412 -0.011236 -0.0064021 -0.011565 0.0038824 0.0049759 0.006806 0.010701 0.0029878 0.0025304 0.012375 -0.0098613 -0.014143 0.0032813 0.013022 -0.010453 0.0021049 -0.0066549 -0.0032731 -0.025281 0.0072014 0.0074168 0.021797 -0.00027933 -0.010294 0.020332 0.0062029 -0.012711 -0.0041557 0.0087108 0.013665 0.0072639 -0.012872 -0.0022411 -0.0048588 -0.014838 0.0081161 0.0012462 0.0022264 0.009562 0.0033383 0.014962 0.00022813 0.003037 0.0096072 0.01113 -0.0059957 -0.0058518 0.0059818 0.010591 0.015511 -2.829e-05 -0.0032783 0.02107 0.012134 0.025128 -0.0089763 -0.0060919 -0.01068 0.0071523 0.013644 0.0028587 -0.0018761 
pay 0.0036432 0.0094652 -0.0074503 0.0028121 0.011669 0.0024274 0.0054925 -0.0028169 0.00014808 -0.0017551 0.0077591 0.01023 0.0017125 0.0050613 0.011239 0.0027152 0.0044921 0.0075421 0.0053227 -0.004404 -0.0014841 0.0013736 -0.00024588 0.0063725 -0.0097207 0.0066547 -0.00089791 0.0029346 -0.0080237 0.0051732 -0.00052899 -0.0031687 0.0050912 -0.010815 0.0053249 0.0043782 -0.00055461 0.0078682 -0.00074844 -0.00012462 -0.0087303 0.0023611 -0.00022757 0.012013 -0.0023781 -0.00082368 -0.004355 0.0058833 -0.0066962 -0.0080161 -0.0018703 0.0049811 -0.0070276 0.010247 -0.0026013 -0.0084982 0.0048667 -0.0051167 -0.005534 0.012888 -0.0031922 0.0020401 0.0086337 -0.0059889 0.0036351 0.010887 -0.0064043 0.0091101 0.0038791 0.0063859 -0.00173 -0.0068899 0.0073598 0.0058577 -0.011067 0.0058182 -0.0046133 0.0047931 0.0034354 0.004989 0.0030767 0.0024376 0.0034698 -0.0085436 -0.0076159 0.0059731 0.0044583 -0.006715 -0.0079524 -0.009397 -0.0033661 0.00090031 -0.0025287 0.0084998 -0.0092732 -0.010379 0.0092244 -0.0015639 -0.0085256 -0.0062566 
close -0.0094626 0.015108 0.0042193 -0.016621 0.018303 -0.00072763 -0.0024493 0.008102 0.012165 0.017798 -0.010971 0.020704 0.0013367 0.0028958 0.00027502 -0.0042846 -0.0027415 0.011484 -0.0012309 -0.0235 -0.015431 -0.0099644 0.0079618 -0.019694 -0.011052 0.0075767 0.012002 0.011669 -0.0052582 0.014281 0.0013847 -0.0032523 -0.011171 -0.011127 -0.007838 -0.0047256 0.0054854 0.00025634 -0.0096916 -0.0072971 -0.0074333 -0.00073684 0.0098726 0.018878 0.013427 -0.0005055 0.0048865 0.015152 -0.020536 -0.0024312 0.0058765 0.0022096 -0.012713 -0.0046264 -0.017669 -0.015815 -0.023644 -0.0045661 0.0040965 0.0253 0.0059052 -0.0032411 0.0072636 0.0050519 0.0044839 0.002207 0.0040328 0.021785 -0.0043317 -0.0094689 -0.01396 -0.0029605 -0.0065778 0.0021781 -0.0040978 0.0091137 0.0028016 0.012203 0.0038886 -0.0016659 -0.0025854 -0.0026785 0.01408 -0.012676 -0.0040385 -0.0027964 0.011796 0.0053711 -0.014794 0.0072855 0.015709 0.0089226 0.024238 0.0075136 -0.019806 -0.0081124 0.0048922 0.010214 0.0081264 0.00079811 
cafe 0.0013317 -0.007053 -0.00089347 -0.009477 -0.0066059 -0.0046693 0.0075581 -0.005346 0.0098831 -0.0095524 0.0021218 0.0068343 0.0027812 -0.0064003 -0.00074972 -0.0032736 -0.0089916 0.0070774 -0.0048631 0.0015543 -0.004021 -0.0070694 0.0085155 0.0093979 -0.00071119 0.0069175 0.008273 -0.0020742 0.0083791 0.010221 0.0075063 -0.00086788 0.0052226 -0.0092166 0.0089365 -0.0059283 -0.0095139 0.0066856 -0.00039455 -0.0048398 0.0086496 0.0090705 -0.004439 0.0051565 -0.0079319 -0.0060659 0.0050674 -0.0064478 0.0036746 0.0060514 -0.0031424 -0.0002786 -0.0024364 0.0073097 -0.0091987 0.0028189 -0.010816 0.0013553 0.0013505 0.010347 0.0075611 0.0089987 -0.0064882 -0.0079325 0.0021707 0.010176 0.0092784 -0.0073913 0.0094913 -0.0080543 0.00034401 0.0062086 0.00049255 0.001513 0.0038324 -0.0061634 0.0034322 0.0079842 -0.0014646 0.0099639 0.0064484 -0.0021661 -0.008583 -0.006335 -0.0082585 0.00010982 -0.000132 -0.00030098 0.0032271 0.0040238 0.0084345 0.0038796 -0.0025511 -0.0035247 -0.0041219 -0.0057538 -0.003319 -0.0087552 0.0097105 -0.0083268 
spici -0.0044535 0.00060494 -0.0056769 -0.0070069 -0.0051641 0.0040735 0.00010802 -0.004642 0.0040603 0.00065977 0.0030226 0.0098387 0.0098334 0.0027176 0.0087173 0.005575 0.0082371 -0.0094193 -0.0037074 -0.0012001 0.0096733 0.0064527 -2.0305e-05 0.0031483 -0.0038939 0.0097869 -0.0064157 0.0084226 0.0024944 0.0028089 -0.0052851 -0.0082488 -0.0028896 0.00031136 -0.00098742 -0.0023865 -0.0067973 0.00082292 0.0046246 0.0096737 -0.0041019 0.0083679 -0.0077872 0.0083012 0.0027993 -0.0021753 -0.0045524 -0.0047681 0.0017727 0.0051821 -0.0037396 -0.00078072 3.8516e-06 0.0014476 -0.0088956 0.0067004 -0.0012785 -0.0031543 -0.0099742 -0.007054 0.003389 0.0026736 0.0015649 0.0069916 0.0079577 0.0076519 0.0064173 0.0073079 -0.0078572 -0.00086594 0.0084926 -4.7722e-05 0.0039004 -0.00882 -0.0063304 0.0081428 -0.0012713 0.0010093 -0.00070551 -0.0095428 0.0048213 0.00062652 0.0059544 -0.003675 -0.00032572 0.0058954 0.00453 0.0099002 -0.0080785 0.0084738 -0.0053863 0.0096525 -0.0031308 -0.0008065 -0.0063066 0.0016969 0.0093398 -0.0019422 0.0045765 -0.0038987 
free -0.0010802 0.00057471 0.0019033 0.0071714 -0.0052641 0.0038958 0.0042858 -0.00048122 -0.0019106 -0.0053593 0.0030556 0.003122 -0.0056303 0.004851 -0.00059414 0.0099493 -0.0051261 -0.0078712 0.0069573 -0.0012415 -0.0012644 -0.0050063 -0.001422 -0.00018183 0.005484 0.0028394 0.0044708 0.0073908 -0.0034784 -0.0058817 -0.0017945 -0.002293 0.0032627 -0.0018533 0.0074288 -0.0020346 -0.0047076 0.0033822 0.0040404 0.0011968 0.0089998 0.0091617 0.0094126 0.0097371 -0.0066064 -0.0012358 -0.0020386 0.00074947 0.0022217 0.007041 -0.0061108 0.0062556 -0.0038908 0.0061922 -0.00583 -0.0093674 -0.00079073 -0.0015907 0.0078787 0.0097357 -0.0019935 -0.009835 0.0023451 -0.0070837 -0.0071071 -0.0048668 -0.0062906 -0.0022083 -0.0022519 0.0059111 -0.0010744 0.0059811 -0.003567 -0.0071648 0.0076978 0.0060852 0.0094606 -0.0043608 0.0062025 -0.0066087 -0.0045859 0.0089976 0.0040031 -0.0067477 -0.0062271 0.0069949 0.010069 0.0072367 -0.0072593 0.0029469 -1.1303e-05 0.0081448 0.0052217 -0.0059018 -0.0082358 0.0009674 -0.0066101 -0.0014067 0.0082675 0.00555 
1/2 -0.0065375 0.0049023 0.011571 -0.00609 0.020295 0.021664 -0.0085789 0.010719 0.015016 0.012737 -0.02061 0.024045 0.0054162 0.025238 0.020505 0.0028358 0.010472 0.018958 -0.011306 -0.038948 -0.029955 -0.008934 0.0080281 -0.027834 -0.008103 0.0025454 0.016142 0.011416 -0.013451 0.020684 0.020422 0.0052157 -0.00088033 -0.015964 -0.013524 -0.0069077 -0.0064923 -0.0099848 -0.0031595 -0.015072 -0.011646 -0.014878 0.0089064 0.036617 0.016253 0.00054603 0.027565 0.004662 -0.019014 -0.013147 -0.0038112 0.0072326 -0.021745 0.0098521 -0.020966 -0.028754 -0.021199 0.0032917 -0.0045898 0.033407 0.016202 -0.014468 0.017334 0.003459 -0.014038 0.0076738 0.0052639 0.014431 0.0057708 -0.0018813 -0.0073802 -0.0044074 -0.018621 0.01218 -0.0098718 -7.5069e-06 0.0061678 0.010274 0.026719 -0.00068198 0.0044482 -0.0083718 0.007723 0.003453 -0.0053343 0.0009012 0.028756 0.012724 -0.013009 0.0044479 0.032997 0.015584 0.031423 -0.0076596 -0.027691 0.00027998 -0.0040538 0.001193 0.011901 -0.020004 
special 0.0024727 0.0079269 0.010888 -0.0052579 -0.0045929 0.0061464 0.0066811 -0.00094055 -0.0077644 -0.0013256 0.0060987 0.012716 0.0069488 0.0057716 -5.8615e-05 -0.0079672 0.0021038 -0.0043654 0.0067529 -0.0020577 -0.00763 0.0038141 -0.0015488 -0.0060385 -0.00071125 -0.0057665 -0.003273 -0.0058014 -0.0053022 0.0017774 -0.0020237 0.0020611 -0.00592 -0.0051534 0.0030375 -0.01013 -0.0061416 -0.0090063 0.008504 0.0044198 -0.010389 -0.0011726 0.0077343 0.0038172 0.002692 -0.00503 0.0030742 -0.00043993 -0.012372 -0.0099937 -0.0079606 0.010927 -0.0015764 0.0056275 -0.010901 -0.0028752 -0.0084281 -0.0066044 0.0026601 0.0058159 0.010559 0.003182 0.0037596 -0.0077953 -0.0045927 0.010448 0.0058135 0.00071829 0.0048062 0.0079876 0.0066351 0.0089801 0.0062047 0.0030509 0.0063454 -0.0039798 0.0098098 0.0024695 -0.0027501 -0.0044263 0.010173 -0.0025331 0.0019344 0.00039538 0.010001 -0.0039466 0.012592 -0.0046032 -0.0095352 0.0018117 -0.0026374 -0.00030516 0.01075 0.0038416 -0.005064 -0.0087637 -0.0072707 0.0063666 -0.0026861 0.0058044 
grand -0.0054504 0.0034548 -0.0018376 0.005633 0.0089168 0.0075584 0.0048639 -0.0052531 0.0038821 0.0030621 -0.0020417 1.7496e-05 -0.0043355 -0.0074356 -0.0012707 0.0086744 0.00065075 0.0007496 0.0078666 -0.0088808 -0.0046025 -0.0087347 -0.00050615 -0.011018 -0.0058175 0.0045009 -0.0027797 0.0019891 0.0037177 0.011959 0.0047559 0.00097999 0.0024289 -0.0033053 0.0077472 -0.0036257 0.0007151 -0.010069 0.0010258 -0.010465 -0.009191 -2.317e-05 0.00027697 0.0097307 0.0084574 0.0010447 0.0061027 -0.0048817 -0.0070583 -0.007252 -0.0084557 -0.0070175 -0.0077908 -0.0013618 0.00063745 -0.0059612 -0.0035868 0.0032995 -0.0021696 0.012424 -0.00044731 0.003481 0.0015676 0.00089148 -0.0087769 0.0034784 -0.005328 0.0075765 0.0010817 0.006421 -0.01022 0.006025 0.0055533 -0.0046136 -0.010173 -0.0011408 -0.0071647 0.0046691 0.0063389 -0.0038702 -0.007715 0.0079476 0.0070256 0.0036089 0.0026728 -0.0017023 0.011986 0.0033382 0.0045168 -0.0088306 -0.0074571 -0.0019538 0.002737 0.0030726 0.001901 -0.0012809 0.0072067 -0.0015412 -0.0058022 0.00060286 
drive 0.0040904 0.0022146 -0.0064992 -0.00892 0.012335 0.0025094 -0.0067829 -0.0041647 0.0053978 0.0013699 0.0062608 0.014801 -0.0052526 -0.0010633 -0.0041191 -0.0091078 0.0024571 0.0024589 -0.0074143 -0.0071688 -0.010531 -0.0024756 -0.0014758 -0.0018354 0.00011935 -0.0060351 -7.8184e-05 0.0005462 0.0012753 0.0073298 0.012227 -0.0058389 -0.0037755 -0.0018403 -0.0072386 -0.0032515 -0.0042603 -0.0068738 -0.011129 -0.0092629 0.00085907 0.0053009 0.0013353 0.011873 0.013594 0.0022088 0.0031841 0.0071149 0.0025326 -0.010684 -0.0036357 -0.0065449 0.00578 0.0069903 -0.0034727 -0.0063702 -0.013588 0.003104 0.0022669 0.012278 0.0034536 0.0017655 0.013776 0.0086313 -0.0051701 -0.0059565 0.00039657 0.0012897 -0.0073895 0.0029423 -0.0018985 -0.00085757 -0.0022956 0.0059146 0.0035067 -0.0022103 -0.0050564 0.0047507 0.011034 0.0078697 0.0075502 -0.002184 0.0055479 -0.0053954 -0.0066946 -0.0023616 0.0035697 0.011913 -0.010764 6.775e-05 0.01499 0.00066543 0.0071248 -0.0099923 -0.011328 -0.010655 -0.0091618 -0.0024198 -0.00064018 -0.006302 
svrck -0.0053125 -0.0008128 -0.0059095 -0.00010798 0.007177 0.010413 -0.0018072 -0.002993 -0.0005876 -0.0071406 -0.0051185 -0.0064047 0.0094711 0.0043211 -0.00057194 -0.00498 -0.0026653 -0.0060241 0.0027692 0.0039688 -0.0009559 0.0094572 -0.00014229 0.0015507 0.0023567 -0.00049078 -0.0036511 -1.168e-06 0.0057509 0.010261 -0.0045221 0.0058143 0.0027948 -0.0072408 -0.0021992 0.0081293 0.0068596 -0.0088446 -0.009676 0.0072672 0.0003231 -0.0048906 -0.0070352 0.010113 -0.0055407 3.117e-05 -0.0021729 0.0037481 -0.010022 -0.0094226 0.0060152 0.0019861 -0.0065571 0.00050111 0.0032334 -0.0012816 0.0035839 0.0019563 -0.0051588 -0.0050669 -0.0086107 0.0080288 0.0018703 0.010092 -0.00858 0.010238 0.0076643 0.0088032 1.5947e-05 -0.010523 -0.00041775 -0.00036883 0.0021184 0.0070711 -0.0079484 -0.0057801 0.008088 -0.00141 -0.0063701 0.0085137 0.004716 -0.0030072 0.00119 0.0030133 0.0094432 0.0053601 0.0059168 -0.0054721 -0.0039119 -0.0021453 -0.0025734 -0.0011972 0.0060251 -0.00018902 -0.0056723 0.0037171 0.0071798 -0.0064172 0.0052853 0.00063059 
pork -0.0057846 -0.0091518 0.0014386 0.0043914 0.0057634 0.0021031 0.00058898 0.0086811 -0.006793 -0.006307 0.0030737 -0.0046413 -0.0096013 0.0054489 -0.0059622 0.001901 0.005609 -0.0076062 -0.0083084 0.0021279 0.0046697 0.0094999 -0.0064182 0.0078316 -0.0015088 -0.00616 0.0096578 0.0077266 0.0087304 -0.0037007 -0.0032268 -0.005929 0.0017389 -0.0066725 -0.0084278 0.0076037 0.0021054 -0.0080826 0.0045678 -0.006861 0.0097304 0.0088333 -0.0043956 -0.0030527 -0.0053553 -0.0066438 -0.003781 0.0038562 0.0051203 0.0078941 -0.0091231 0.0017254 -0.0034849 -0.0085452 0.0075579 -0.0060009 -0.0066264 0.0020251 0.0021922 0.0017398 0.0077858 0.0094998 0.0054373 -0.0056276 -0.00013625 0.0027555 -0.0069688 0.0030693 -0.0020512 -0.00079453 0.0044763 -0.0059079 -0.002842 0.0023596 -0.0033537 0.0081483 0.0066263 0.0041582 -0.0021626 0.00077165 0.0026643 0.0082589 0.0066241 -0.0063057 0.008209 -0.0029252 0.0044765 0.00010363 -0.0015225 -0.00014135 -0.0066313 0.0070058 0.0094365 -0.0094113 0.0015781 -0.0052674 -0.0039728 0.0077255 0.0072601 -0.0013204 
ice 0.0032504 0.0052898 -0.002948 -0.0094359 0.0029605 -0.0061067 0.0074633 0.0075016 0.0024233 0.0090835 -0.0056079 -0.0021835 -0.0070989 -0.0017055 0.0042033 0.0024667 -0.0067685 0.010959 0.0077849 -0.0051799 0.0023622 -0.0045237 0.0090664 0.0028936 -0.0058297 0.0035044 0.010582 0.0043754 0.0052086 4.673e-06 0.0029209 0.0012375 -0.0099925 -0.0095849 0.0037429 -0.0036683 0.0090663 0.0016845 0.0021745 -0.0089692 -0.00717 -0.0099785 0.0016359 0.00073951 -0.0039081 -0.0046456 -0.0051558 0.0078807 0.0033245 0.0026487 -0.0076474 0.0017477 -0.010564 -0.0081909 0.00040045 -0.0087875 -0.003918 0.0097202 0.0043146 0.0008346 -9.818e-05 0.0057192 0.009567 -0.0031529 0.0078883 0.011441 -0.00023572 0.011685 -0.0084247 0.0019221 0.0073255 -0.00247 -0.0094216 0.011385 -0.010612 0.0076321 0.0079236 0.0092299 0.0066715 -0.0024756 0.0099584 -0.0031451 -0.0075509 -0.0028228 0.0042325 -0.002002 -0.00095804 0.0093264 -0.0043818 -0.0014377 0.011854 -0.00075439 -0.00065181 -0.0019777 -0.0045984 -0.0039487 0.0063079 0.0095731 0.0025244 -0.011438 
28.00 -0.0058943 0.0081169 0.001478 -0.012861 0.0022828 0.01396 -0.0030625 -0.00096467 0.013531 0.015151 -0.01131 0.023761 0.0059649 0.020672 0.006186 -0.0018004 0.008502 -0.0026186 0.0059397 -0.025777 -0.021317 0.0029288 0.009444 -0.0026775 -0.0085445 0.013854 0.0075529 0.011892 -0.0055254 0.018933 0.015071 0.0015728 0.0054794 -0.0052573 -0.0041989 -0.0011932 0.0017337 0.0052666 -0.0070856 -0.0068002 -0.0080854 -0.010513 -0.0037439 0.023288 0.003409 -0.0090906 0.01788 0.013136 -0.014739 -0.0077265 -0.0064188 -0.0025644 -0.014582 0.0051436 -0.015757 -0.010064 -0.0059452 -0.0084503 -0.0046235 0.013584 0.0084978 -0.010557 0.0051903 0.0075288 0.0051076 0.00086561 0.001397 0.012683 -0.0007892 0.0065345 -0.0025099 -0.0095826 -0.0015692 0.0020278 -0.006963 0.0011614 0.011917 0.0069886 0.010717 0.0063582 0.012006 -0.00535 -0.0041956 -0.0024296 0.0024966 0.0036114 0.0053027 0.0078253 -0.014013 -0.0019242 0.025259 0.0025213 0.022697 -0.0013753 -0.016163 0.0014015 0.0016651 -0.0022269 0.0023078 -0.00042592 
park 0.0042345 -0.0011152 0.0072892 0.0099449 0.0025965 -0.008987 -0.0062317 0.0070004 0.0059959 0.0042527 -0.0032945 -0.0075328 -0.0074748 -0.0026476 -0.0089946 0.0018722 -0.0038423 0.0099014 0.0065483 0.0087417 -0.0014719 -0.0025132 0.0073454 0.0096972 0.0026283 0.0025207 0.0019916 0.0015461 -0.0032189 -0.0066447 -0.0024368 0.00082767 -0.0080826 0.0041682 -0.0074075 -0.0051921 -0.0030621 0.0053134 -0.0054977 -0.0016967 -0.0093521 -0.0093966 -0.0096981 0.00098179 0.0046918 0.0067563 0.0093758 -0.0032621 0.0017099 -0.0091423 0.0063169 0.00079579 0.006876 0.0041217 -0.0033526 0.0058587 -0.005942 0.0083338 -0.0089912 0.0040236 0.004445 0.0091743 -0.0056478 0.0049615 0.0058411 -0.0011343 0.0011055 0.009154 -0.0054629 0.0016697 0.0020997 -0.0048676 -0.0052936 0.0078895 -0.0011111 0.0026572 0.00072665 -0.0069048 -0.0074265 -0.0095913 -0.0062042 -0.0033139 0.0065994 -0.0051792 0.0070113 -0.0049685 -0.0046279 -0.0011092 -0.00096643 -0.0064236 0.0083361 -0.0072575 0.0041833 -0.0051503 -0.0094765 0.0085677 0.0075542 0.0022019 0.0033037 -1.2388e-06 
5.50 0.00039317 -0.0059243 -0.0053312 -0.010607 -0.0025669 -0.0073718 -0.0059538 0.0068399 -0.0023306 -0.0054691 0.0088854 0.0092316 -0.007182 -0.0062214 -0.0080663 0.0029529 -0.0038716 0.00084031 0.0074074 -0.0032874 0.00096226 0.0046332 0.00045285 -0.008141 0.0029475 0.0089754 0.0084453 0.0067328 0.0091913 0.0017231 0.0032908 -0.0060143 -0.0014978 -0.0023453 0.00094313 -0.00029747 -0.0017199 0.00032692 0.0026137 0.0038485 0.0023644 -0.0058794 -0.0067472 0.0058223 0.0040006 0.0085884 0.0027788 0.0078131 0.0080168 0.0086886 -0.0064263 0.010128 -0.0098223 0.0049851 -0.0092958 0.0029456 -0.0044321 -0.0080693 0.0069046 -0.00092515 0.0089485 0.00114 0.0098465 -0.007847 -0.0081531 0.010706 -0.0030081 0.0068161 -0.0083342 0.00098979 -0.0097123 -0.0084427 -0.010219 -0.0045993 -0.0057958 0.0039002 -0.0044683 -0.0011922 0.0014567 -0.0085392 -0.0091979 0.0087501 -0.0061108 -0.00041008 0.008277 -0.0086668 -0.0019353 -0.0019399 0.0044921 -0.0031137 -0.0051356 0.0020173 0.0045787 -0.0089347 0.0024915 0.0040457 0.0091878 0.00028549 -0.0054699 0.0064576 
american -0.00026583 0.0064734 -0.0059358 0.0007833 -0.006473 0.0061074 -0.0067866 -0.0053829 -0.0022878 0.0093009 -0.0037253 -0.0032889 -0.0087333 -0.0056439 -0.0031454 0.0035312 0.0040008 -0.0034627 -0.0050238 -0.005751 -0.0062041 0.00087741 0.0060311 0.0076293 0.0070117 -0.0027928 -0.0022296 0.0042082 -0.0062114 -0.0042919 -0.0022159 0.0032404 -0.0036596 -0.004633 -0.0054922 0.008757 0.0017398 0.0037682 -0.0058076 0.0072493 0.0053137 0.0083854 0.006146 0.0093305 0.0028191 0.0054636 -0.0056017 0.0066454 -0.0072911 -0.00054787 0.0016475 0.0034728 0.0013456 -0.0055457 -0.0097891 0.00029036 -0.0014084 0.00060348 -0.0056254 0.0096541 0.0010161 -0.0096594 -0.0023135 -0.0045041 -0.0020025 0.0049184 0.00031453 0.0097317 -0.0024798 0.0030307 -0.0061206 -0.0036801 0.0019661 0.0082734 -0.0028483 -0.0026924 -0.0012078 0.00052847 -0.0048366 0.0036562 0.0051123 0.0076389 -0.0023938 -0.002198 -0.0063945 0.0036005 -0.0078907 0.000396 0.0031368 0.00036933 0.0014564 0.0047407 0.0092641 0.003867 0.004743 0.00085115 0.0087585 0.008172 0.0048716 0.0026229 
1.50 -0.0018364 0.0085544 -0.0023028 0.00088659 -0.00078606 0.0077051 -0.0068589 0.0054235 -0.0018524 0.0062158 -0.0058938 0.012497 0.0068709 0.0089323 -0.0040935 0.0023019 0.0048298 -0.00053415 0.0079195 -0.0072937 0.00073156 0.0015865 0.0042208 -0.013586 -0.010727 0.0072326 -0.0067177 -0.0015984 0.0063552 -0.0012715 -0.00072143 -0.0013797 0.0082661 -0.0025687 -0.0059681 -0.0044356 0.0080928 -0.01169 0.0015208 -0.010386 0.006341 -0.0023543 0.0069318 0.010053 0.011037 0.0032109 0.0094473 0.010916 -0.00035778 0.0057809 0.00035641 -0.0079956 0.0022891 0.0076455 0.0012196 -0.0056089 -0.011463 -0.0019099 0.0017897 0.01141 0.01145 -0.0013869 0.0083362 -0.0038451 0.0016732 0.009305 0.0060693 0.0042333 -0.0090589 0.0049732 0.0019706 0.0010257 -0.0035212 0.011007 0.004214 0.0039673 0.010792 -0.0040216 -0.0052827 -0.0083612 -0.0028921 0.0018765 0.00091356 -0.0088287 -0.0026693 0.0010136 0.0043748 0.0012072 0.0046554 -0.0056482 0.005115 0.0013093 0.0056308 -0.009936 -0.014475 -0.01135 -0.0077416 0.0047212 0.004257 -0.0062057 
wine -0.0031136 0.0022232 0.0054291 0.007798 0.0074735 -0.0041444 -0.0080589 -0.0036045 0.0094571 -0.0048332 0.006164 0.009867 -0.0066177 -0.0043443 0.0064444 0.0065343 0.0092373 0.0083635 0.0051294 0.0015678 -0.0066875 -0.0083747 0.0034324 0.0020754 0.0062737 0.0033533 -0.0074227 0.0082203 -0.0019763 0.0014216 0.0012414 0.009432 0.0064207 -0.0012076 0.0098894 -0.0013277 -7.4579e-05 -0.00044737 5.3327e-05 0.0077301 -0.0091827 -0.0042781 -0.0047882 -0.0082385 -0.0019892 -0.0056942 0.0042079 0.0072782 -0.0036593 -0.0039955 0.006565 0.0036275 0.0039514 -0.002994 -0.0084442 -0.0028677 0.0041176 -0.005806 -0.0046498 0.0081736 0.0097912 0.0012529 -0.003705 0.0060046 -0.0062656 0.0018096 0.0044352 0.0032926 0.0096468 0.0066465 -0.0058267 -0.0025252 0.0076279 -0.00023339 -0.0026371 -0.0041948 -0.00039864 -0.0058491 -0.0011911 0.0037445 -0.0045388 -0.0089861 0.005885 -0.0014989 -0.0087732 -0.0090601 0.0063614 0.0043652 -0.0068215 -0.0081885 0.0082356 -0.0098885 0.0029851 0.0028863 0.0070859 0.0073735 0.0047612 0.0064747 0.0074051 -0.0014383 
onlin 0.0017181 0.010102 -0.0081264 0.0060085 -0.0087562 -0.0024985 -0.0078967 0.0033176 -0.0022699 -0.0034603 -0.0092617 0.01035 -0.00016501 0.0074506 0.0046226 -0.0081592 -0.0054422 0.0017646 0.0016815 0.007056 -0.0019366 0.0038721 0.0045343 0.0049342 -0.0061793 0.00029024 0.0018719 -0.0037062 -0.0003894 0.010367 -0.00084205 0.0066848 0.0089736 -0.0076801 0.0048366 0.0068389 -0.0055469 -0.0038057 -0.0045422 0.0061111 0.001778 -0.0011329 0.0048245 -0.0060171 0.0063677 -0.005705 -0.0058099 -0.0029065 -0.00069443 0.0050559 0.0095251 0.0072236 0.00057572 -0.0095025 -0.0038095 -0.01044 0.0047165 -0.0084024 -0.0030686 0.0011598 0.00034889 -0.0012275 -0.0073756 0.00084063 -0.0062225 -0.0027862 -0.0049355 -0.00087645 -0.0028865 -0.00091254 0.00017923 -0.00228 -0.0063346 -0.0074281 0.0029617 -0.0089979 -0.0090905 0.0045497 -0.0076146 0.0044096 -0.00035896 -4.6774e-05 0.00088026 0.0098644 0.0026764 0.0056875 -0.0036975 -0.0030189 0.0081232 0.0091529 0.0077358 0.00073374 0.0035134 0.0082478 -0.0017076 -0.0050567 -0.0045252 -0.0052362 -0.0076468 0.0036279 
mac 4.645e-05 -0.0058184 -0.0037455 0.0073574 -0.0010907 0.0036364 0.0053043 -0.0096332 -0.0072045 -0.00081993 0.0030734 -0.0022435 -0.0027875 -0.0073648 0.0078414 -0.0040627 0.0040484 0.0058521 0.0057652 0.0072505 0.0089303 -0.0089878 0.00087061 -0.0019295 -0.0046654 0.0046406 -0.0026587 -0.0084282 -0.0027871 -0.00070128 -0.0069573 0.0092951 0.0091908 -0.0050569 -0.0050503 -0.0096054 4.7229e-06 -0.0062414 0.00013937 0.0086759 -0.0035046 -0.001098 -0.0028339 -0.00022846 -0.0028933 0.0060593 -0.0072394 -0.008952 0.0024553 -0.0023622 0.0064092 -0.0015282 -0.0044363 0.0031641 0.0037605 -0.0074068 0.0017207 -0.0085384 -0.00089016 -0.007037 -0.00084115 -0.0039937 0.0051327 0.0010367 -0.0078157 0.0073439 0.0097856 0.0085921 0.0071974 0.0071014 -0.0082883 -0.0034522 0.0062849 0.0063427 -0.0062689 -0.0028889 -0.0088605 -0.0056244 0.0047113 0.0078206 0.0035474 -0.00024543 0.0088813 -0.0065766 -0.001574 0.0022021 0.0094215 -0.0074936 -0.0015863 -0.0052948 0.0065336 0.0058977 0.00056078 -0.001263 0.0083123 -0.0035037 -0.0053069 0.0010765 -0.0043496 -0.0036163 
rib 0.0066713 0.0037336 0.012765 0.0037934 -0.00029159 0.0084217 -0.0058624 0.0047165 -0.0024539 0.012524 -0.013265 0.0020311 0.0059544 0.0059076 -0.0011929 0.00014269 0.0070464 0.0045883 0.00474 -0.017074 -0.015881 0.0049334 -0.0047832 7.0638e-05 -0.001556 0.010227 0.0010889 0.0068853 -0.010744 0.0052208 -0.0053152 -0.0022728 0.00036308 -0.014743 -0.012258 -0.0069524 -0.002937 -0.0053042 -0.0034039 0.0039565 -0.0074431 -0.0093439 0.0099061 0.011759 0.010228 0.003695 0.010546 -0.0062685 -0.0046194 0.0032916 0.0074876 0.01112 -0.01314 0.0027984 -0.0079419 -0.0057031 -0.0079092 -0.010247 0.00048829 0.0087925 0.011861 0.0033616 -0.00368 -0.0027454 0.0066266 0.0020933 -0.0036462 6.399e-05 0.00098305 0.0032693 -0.012395 -0.0095423 0.0021868 0.0075987 -0.0077562 -0.001807 0.010473 -0.0052578 0.014649 -0.0091228 0.0059489 -0.0042733 0.003349 0.0059406 -0.0012317 0.0071188 0.007771 -0.00043361 0.00071835 -0.010467 -0.0019098 0.0058243 0.0082996 -0.0021849 0.00086069 -0.0020982 0.0072422 -0.0019849 -0.0068334 -0.0092584 
fish 0.0070533 0.0039475 -0.0010998 0.00040397 0.0056948 0.0021257 -0.0028738 -0.001758 0.013749 0.001073 -0.005928 0.0067743 0.010416 0.013001 0.0041632 -0.0072546 0.010258 0.0089303 -0.0086504 -0.011057 -0.013212 -0.0054033 0.0063062 -0.016539 -0.0094912 0.0043566 0.0094588 0.0091034 0.0047043 0.0053342 0.011243 0.010241 0.0068604 -0.019259 -0.017069 -0.0098306 -0.0058141 0.0022803 -0.012532 -0.012415 0.004351 -0.013727 0.013048 0.012228 0.0085143 -0.0094067 0.011904 0.012908 -0.018388 -0.0052048 0.00083157 0.0045717 -0.0055024 0.0027645 -0.010095 -0.018755 -0.018601 -0.007434 -0.0053294 0.013274 -0.0015309 -0.0055997 0.01328 0.0019594 -0.0095513 0.00047186 0.0057443 0.00094347 0.0045722 -0.01282 -0.011862 -0.0093395 0.00094375 -0.00020748 -0.0023996 -0.00065853 -0.00027676 -0.0051053 0.0022087 0.0043809 0.011268 0.0069338 0.011577 -0.0064481 -0.0029427 -0.0058958 0.0057176 0.010582 -0.013519 0.008027 0.008692 0.011879 0.020699 -0.0032649 -0.01589 0.00093887 0.0072311 0.009466 0.0028513 -0.011341 
kid -0.0085355 -0.0077704 -0.008807 0.0046909 -0.0078212 0.0087482 -0.0012316 0.0056889 -0.0079678 0.0056353 0.0014748 -0.0039355 -0.0099576 -0.0068451 0.00049104 -0.0052187 0.0099299 0.002939 0.0070211 -0.010855 -0.011372 -0.0062933 0.0016937 0.00041624 -0.0019839 -0.0091403 0.00193 0.0067936 -0.0067325 0.0015861 0.0083476 -0.0013489 0.0075739 -0.0034248 -0.0021133 -3.815e-05 0.010185 -0.0014243 5.9876e-05 -0.007821 -0.0044984 0.008054 -0.0043286 -0.002248 -0.0034534 0.0015502 0.0073942 0.0068639 -0.00871 -0.007391 -0.0076785 -0.0074298 0.0063486 0.0061063 0.0065714 0.0047872 -0.0020192 -0.0015512 -0.001809 0.0057177 -0.00075941 0.0065013 0.0041119 0.0065385 -0.0057624 -0.0060691 0.0091217 0.00070261 -0.0058808 -0.0059867 0.0043138 0.0060799 -0.0040776 -0.0072513 -0.0076743 0.0092282 0.010883 0.0047477 -0.0047972 0.005456 0.0051241 -0.0088151 -0.0037799 0.0091334 0.0090623 -0.0023634 -0.0070539 0.0011395 0.0017503 -0.009411 -0.0073348 0.002398 0.0021251 -0.0021983 0.0016546 0.0044876 9.0992e-05 -0.0063693 -0.0043807 0.00095858 
auth -0.0086867 0.0012281 -0.0027441 -0.012733 0.012897 -0.0011623 0.0050909 0.0072258 -0.00077062 0.0012192 -0.0037964 0.004196 0.0035858 0.0084689 -0.0019441 -0.011328 0.0049196 -0.0048824 0.00019044 -0.0044991 -0.0042917 0.0039928 0.0061271 -0.0091099 0.0063913 0.0042989 -0.0033238 -0.0044176 -0.00097312 0.017281 0.0039516 0.008676 -0.010479 -0.0067728 -0.0066939 -0.0088051 -0.0093492 -0.0047895 0.0036511 0.0043901 -0.0061998 -0.0056649 0.0037646 0.0071829 -0.0042498 -0.01094 0.0038627 0.0057353 -0.013872 -0.0014465 0.0058383 0.0015947 -0.005315 -0.0019258 0.003394 -0.011868 -0.0085023 -0.00075859 0.0017044 0.016586 0.012192 0.0012095 -0.00022408 0.0016101 -0.0069652 -0.00044108 0.010395 -0.0010689 -0.0044354 -0.005172 -0.011002 0.0023512 -0.0052218 0.0056391 -0.0048238 0.0098315 -0.0028445 -0.0039757 0.0082479 0.0013549 -0.0030222 -0.0022787 -0.00051903 -0.010752 -0.0049023 -0.0011201 0.014671 -0.0044939 -0.0029039 -0.0011113 0.010785 0.0089096 0.02195 0.0078425 -0.0077662 -0.0025636 0.0010635 -0.00083227 0.0027261 -0.0060883 
small 0.0016652 0.010374 0.011483 -0.0095049 -0.0052033 0.011597 0.0041262 0.010331 -0.00059208 0.0023714 0.004723 0.00084098 0.0040929 -0.0053919 -0.004561 0.007671 -0.0052028 0.0075806 -0.0015692 0.0016783 -0.0074846 -0.010119 0.011007 0.0016288 0.0069093 0.0073594 -0.0061838 0.0033669 -0.0086705 0.007917 -0.0051499 4.9273e-05 -0.0091698 -0.0053806 -0.00032625 0.0074752 0.0090865 -0.0069747 0.0077399 0.0071039 -0.0061064 -0.00020129 0.004028 0.013549 0.0058516 0.005963 0.00038189 0.0033499 -3.4672e-05 0.0044374 0.0043073 0.0067628 0.0073511 0.0074719 0.005827 -0.0083655 -0.009194 0.0060398 0.001104 0.0097117 0.0034936 -0.011203 0.0038888 -0.0079302 -0.0015587 -0.0033352 -0.0037376 0.0097263 -0.0025304 -0.010007 0.00054929 -0.010383 -0.0076363 0.002141 -0.011377 -0.0026118 -0.0061693 -1.0046e-05 0.010238 0.0071607 0.0029033 0.00097817 0.007376 0.0068419 0.0063972 0.0053438 0.0098777 0.007807 0.0058005 0.0031975 0.0082105 0.010147 0.0089534 -0.010385 -0.0098668 -0.0026974 -0.0048514 -0.003541 0.0067767 -0.0050297 
14.95 -0.006523 0.00097504 0.0068618 -0.0018871 0.01204 0.0037624 -0.010005 0.0075888 0.0098092 0.001978 -0.0026083 0.0073805 0.0063327 0.014301 -0.0049555 -0.0086577 0.00065216 -0.0015429 -0.00014484 -0.016136 -0.013305 -0.0018078 -0.00040608 0.0047011 -0.010916 -0.00037374 -0.0063803 0.0034742 -0.0094061 0.014446 0.0050527 0.0037765 0.0082826 -0.0086842 -0.0040486 -0.0063429 0.0011838 -0.0082379 -0.010595 0.0070783 -0.0073478 -0.0065035 0.010323 0.0074713 0.0050424 -0.0015338 -0.0018196 -0.00039296 -0.0053384 -0.010363 -0.0011128 0.0037252 -0.011017 -0.0058457 0.005052 -0.0090864 -0.0026948 0.0059848 0.0054728 0.00040615 0.0094784 -0.00061333 0.01191 0.0054869 0.0059016 0.0061834 0.00069882 0.0018075 -0.0074334 -0.010388 0.0050706 0.0084245 -0.0014907 0.01308 0.001361 -0.0013323 -0.0036445 -0.00061454 0.007665 -0.0080508 -0.0018345 0.0075432 -0.0064491 0.0029175 -0.0053294 -0.00066302 0.0023297 0.0091359 -0.0086301 0.00040052 0.010499 -0.0047731 0.012156 0.0029103 -0.012384 -0.012539 0.0057423 -0.0050617 0.0079312 -0.0014188 
tran -0.0081452 0.0077226 0.00076078 -0.0042209 -0.0086285 0.0083798 -0.00068527 0.0042112 0.0046433 0.01152 -0.010986 -0.0041066 0.0030716 -0.0082195 0.010124 0.0072297 0.0099157 -0.0069626 -0.0016149 0.0037134 0.0059359 -0.0098669 0.0002761 -0.0046915 -0.0099876 -0.0025279 0.010465 -0.0018203 0.00059058 0.0018607 0.010301 0.0031977 -0.0068173 -0.00041044 0.0015874 -0.010974 0.0062028 0.006628 -0.0021041 -0.0067114 -0.0047648 -0.010026 -0.0018543 -0.0037309 -0.0059947 0.0075389 -0.00088 -0.0047695 -0.0085739 0.0057766 -0.0091432 -6.2026e-05 0.00024319 0.0068744 -0.0082655 -0.0093542 -0.0052676 0.00069351 -0.0060738 0.0066091 -0.0061872 -0.0042667 0.0054415 -0.0084062 -0.0017242 0.0032255 0.0059723 -0.0055245 -0.008083 -0.0023593 -0.0005626 0.0089885 0.0046438 -0.00164 0.002706 0.0035722 0.00624 -0.003446 0.0012214 -0.0082617 0.00061747 0.0046543 -0.0041914 -0.0066832 0.0044587 0.0010068 0.004586 -0.008291 -0.0095429 0.005916 -0.0072212 0.0059539 -0.0036517 0.0076785 0.0054406 0.0066018 0.00050245 0.0020072 -0.0034511 0.0058686 
soda -0.0089782 0.0026001 0.0021459 0.0097959 0.0072634 0.0036017 -0.0097368 0.0060533 -0.0019036 0.0043443 -0.0083531 -0.0068045 0.009871 0.0019582 -0.0090659 -0.0097669 0.0031516 0.0067822 -0.0052786 0.0023548 -0.0088221 -0.0065597 0.009141 -0.0062696 -0.0020332 0.0047855 0.002855 -0.0072416 -0.006335 0.0090987 -6.7585e-05 -0.0041288 0.0090085 -0.0080422 0.0050218 0.0023145 -0.0019155 -0.0015523 -0.0024627 -0.0048982 0.0042908 0.0030471 -0.00638 -0.0020188 0.0042314 -0.00082911 0.0044181 -1.5942e-05 0.00073702 -0.0067924 -0.0060803 -0.00015385 -0.0079695 0.0050053 -0.0072528 -0.00021687 0.0030095 0.0070166 -0.0073678 -0.0044363 -0.0063745 -0.0041268 0.0048319 0.0013807 0.0087931 0.0037588 0.0030572 -0.0077903 0.0046965 -0.0017688 0.0071546 0.00083377 -0.0040832 -0.0062915 -0.00459 0.0098714 -0.0030794 -0.0036395 -0.0072135 0.0022917 -0.0089945 0.0062689 0.0084109 0.0065043 0.0084359 -0.0098689 0.0074611 0.0026425 4.7283e-05 -0.0052136 0.004909 0.0092059 0.0027837 -0.0032458 -0.0040755 -0.00066649 0.0096863 -0.0074855 -0.0011186 0.0091738 
egg -0.0089353 -0.0070239 -0.0061936 0.0034782 0.0092637 0.010474 -0.0070225 0.0085719 0.00038067 0.0044771 -0.0026655 0.012247 -0.0041426 0.00091498 0.0014304 0.00063962 0.0067851 0.0084889 -0.0018082 -0.014846 -0.014089 -0.0010986 0.0084795 0.0033037 -0.009522 -0.0078578 -0.0017136 0.010323 -0.0046131 0.0056059 -0.00069605 0.0077285 -0.00426 -0.004323 -0.0058301 0.0049413 0.0035872 -0.0028888 -0.0028957 0.0052333 0.0024907 -0.00051648 0.0011167 0.0010974 0.0069622 -0.0072461 0.0063858 -0.0055781 0.0011354 0.0078193 0.0070442 0.011063 -0.0058359 0.0076938 -0.0060446 -0.013435 -0.006724 -0.009329 -0.0042138 -0.00076492 -0.001823 -0.0032632 0.0060912 -0.0030292 0.0028359 -0.0051493 0.0086041 0.0052707 -0.0060454 -0.0055912 0.0056287 -0.003053 -0.0064967 0.0073299 0.0043409 -0.0047835 0.0056655 -0.0067206 0.0072655 0.0067377 -0.0071164 0.0060182 -0.0028199 0.0018196 -0.00028893 -0.003417 -0.0052719 -0.0047085 -0.0055652 0.0026099 0.0085498 -0.0082245 0.012408 0.0077725 0.0060539 -0.0024444 -0.0071856 -0.0076187 0.0080678 0.0064309 
5.80 0.0076864 -0.0041934 0.0087109 0.0044885 -0.0054291 -0.0053156 -0.0086464 0.0049767 -0.0027198 -0.0042841 0.0074144 0.0026636 -0.0087331 -0.0090534 0.0065716 0.0061235 -0.0030232 -0.0054519 0.0059222 -0.0078915 0.0072837 0.0040597 0.0012895 0.00024643 -0.001984 -0.0030732 0.0089684 -0.0023876 -0.0089718 0.0070235 -0.0098033 0.00091087 -0.009852 -0.0098621 -0.0092786 -0.0090638 -0.0067812 0.0023123 0.00087422 0.0053299 0.00043127 -0.00057851 0.0055301 -0.0076287 -0.004699 1.2666e-05 0.0036709 0.0026459 0.0064533 -0.00010023 -0.0046618 -0.0010991 -0.0017881 0.0079575 -0.0009361 -0.0052675 -0.0021035 -0.0097452 -0.0044312 -0.0028388 0.0094791 -0.0035565 0.0039591 0.0019408 -0.0090403 0.0057797 0.0052839 -0.0038333 0.0042898 -0.0014873 0.0073734 0.0081017 0.0040688 -0.0039368 -0.005174 -0.0023766 -0.0092122 -0.0063762 0.004985 -0.0080205 -0.007482 -0.007124 -0.0073368 0.0071401 0.0045623 -0.0050423 -0.0046867 0.0079736 0.0083851 -0.0034538 -0.0058236 0.0031864 -0.0096449 0.0028802 0.0046993 -0.0064464 -0.00044351 0.0027315 -0.0087369 -0.001708 
17.00 -0.0020252 0.014463 0.015713 -0.012864 0.013201 0.0091057 -0.0071785 0.014984 0.0073456 0.014511 -0.017501 0.025799 0.0051265 0.016322 0.0017193 -0.0046409 0.013217 0.0021915 -0.0067539 -0.027616 -0.013892 -0.011398 -0.0002819 -0.014097 0.0018956 0.0041093 0.0075651 0.003419 0.0030614 0.030047 0.0064671 0.0048628 -6.6722e-05 -0.021404 -0.0078678 -0.012366 -0.0043319 -0.0077403 -0.0070637 -0.019668 -0.0093738 -0.013933 0.0079626 0.01981 0.021951 -0.0020546 0.023837 0.0073869 -0.00792 -0.014943 0.0073366 0.0092329 -0.0191 -0.000431 -0.016553 -0.01431 -0.017383 0.0017722 -0.0037061 0.019756 0.0068902 -0.0085417 0.023572 0.0096366 0.001167 0.01073 0.012137 0.0085644 0.0054055 0.000332 -0.0069428 0.0049266 -0.011598 0.0089166 -0.01021 0.014412 0.0052269 0.0098525 0.012769 -0.000227 0.0083919 -0.0062762 0.010146 0.00036377 -0.0047505 0.014111 0.023058 0.015186 -0.01838 0.00095774 0.028357 0.0022041 0.035009 -0.012152 -0.010549 -8.7252e-05 0.0099855 -0.0013721 0.0079549 -0.0047072 
9.95 0.0029102 0.0021666 -0.0031434 0.004135 0.0008721 0.0097885 -0.0091406 0.00066514 -0.0086375 0.0087165 -0.0079091 -0.0050097 -0.0040906 0.0042794 0.0048846 -0.002546 0.0016024 0.0022448 -0.0099539 0.0051902 -0.0078957 -0.0037503 -0.0066414 -0.0039221 0.00041998 -0.0051064 0.010788 -0.0069346 -0.0098873 0.00056384 0.0036957 -0.0015821 -0.0042292 -0.0021114 0.0031758 0.0056655 0.00048573 -0.0056135 0.0085341 -0.0048297 0.0012956 0.0075342 -0.002334 -0.0062604 0.00057356 0.0044879 -0.0025033 0.0091483 0.0058356 0.0011844 0.0089231 -0.0069958 3.3815e-05 0.0097997 0.0041993 -0.0033564 -0.0017773 -0.0018118 0.0049897 0.0025146 0.0039471 -0.0022224 -0.0077746 -0.0054544 0.0014338 -0.0087104 -0.0054748 0.010443 0.0031552 0.0044345 0.0016872 0.0094309 -9.279e-05 -0.0030015 -0.010649 -0.0011104 -0.0036423 -0.0058468 0.0085834 0.0054645 0.0064765 0.0055013 -0.004646 -0.0040998 -0.0037974 0.0083001 -0.0077208 0.0066549 -0.0026992 -0.0053464 0.00043836 0.0084132 0.0056558 -0.008812 -0.0069369 -0.0025075 0.0034899 -0.0062367 -0.0073711 -0.0015655 
day -0.0016487 -0.0056869 -0.0015806 0.0026368 3.0135e-05 0.0012934 0.0089086 -0.0007921 -0.0088244 0.0039756 -0.002819 0.0063688 0.0016937 -0.0059555 0.006518 -0.0086344 0.0015605 -0.0012518 -0.008774 -0.011055 -0.0086615 -0.0057251 -0.0010033 0.0026945 -0.0080448 -0.0016572 0.0011597 -0.0067957 -0.006709 -0.00089767 -0.0051616 -0.0050393 -0.0065713 -0.006794 0.0086666 -0.0049506 -0.0087227 0.00019845 0.0013808 -0.00098406 -0.0015716 0.0056022 -0.0063186 0.0012182 -0.0078721 0.0080649 0.00091192 0.0023836 0.0035747 0.00031842 -0.0012786 0.00066611 -0.0018779 0.0041303 -0.0064301 -0.0016886 -0.0038906 0.0017419 -0.0022656 0.012323 -0.0083644 0.0041348 -0.0041726 -0.0055859 -0.0046129 0.0026412 0.0070758 0.00061873 0.0054052 -0.0060858 0.0085255 -0.0046117 0.0061269 0.00022652 -0.0060308 0.0024336 -0.0056945 -0.0021575 0.0090862 0.0099877 -0.0021996 0.010559 -0.0080694 0.0093855 0.0061933 -0.0050321 -0.0012956 0.0063542 -0.0070367 -0.0034089 0.0096769 0.00036102 0.010572 -0.0074104 -2.5187e-05 -0.0037175 -0.0028547 -0.0036899 -6.935e-05 -0.0036509 
salmon -0.0047115 0.0099831 0.0092753 -0.00079671 0.00982 -3.18e-05 0.0074145 0.00061028 0.0022238 -0.009845 -0.0061236 -0.0024058 0.0061289 -0.009254 -0.006283 0.002994 0.0062711 0.0099862 0.0043564 -0.007812 0.0042307 0.0031917 -0.0039048 -0.0028962 0.007956 0.0010573 0.0074646 -0.0038596 0.0091277 -0.00017639 0.0018119 -0.0033552 0.0023764 0.0040234 0.0014066 0.0059319 0.0024076 0.0095709 -0.0020988 -0.0061439 -0.0021248 -0.0071858 0.0085475 -0.0010963 0.0021387 0.00010314 -0.0092039 0.0066971 0.0064459 0.0046616 0.008327 -0.000952 0.0071875 -0.0008869 0.003587 -0.0070261 -0.0016876 0.0053531 0.007183 0.0022388 0.0050547 0.0082437 -0.0062458 -0.0068867 -0.0057303 -0.0045331 0.0091176 0.00050424 -0.0041109 -0.0055085 -0.003526 0.008124 -0.0061826 -0.00071515 -0.0062214 0.0070086 0.0051033 0.00076134 0.0098706 -0.0088127 0.0061177 -0.00029472 -0.0085111 0.0088314 0.00016217 -0.0065805 -0.0034523 0.004386 0.0052437 0.0027248 -0.0051936 0.0052127 -0.0041769 0.0048428 0.0087146 -0.0018052 0.0081292 0.0055793 -0.0016042 -0.0083862 
